{"learner":{"attributes":{"best_iteration":"49","best_ntree_limit":"50"},"feature_names":[],"feature_types":[],"gradient_booster":{"model":{"gbtree_model_param":{"num_parallel_tree":"1","num_trees":"50","size_leaf_vector":"0"},"tree_info":[0,0,0,0,0,0,0,0,0,0,0,0,0,0,0,0,0,0,0,0,0,0,0,0,0,0,0,0,0,0,0,0,0,0,0,0,0,0,0,0,0,0,0,0,0,0,0,0,0,0],"trees":[{"base_weights":[-1.8691588E-2,-4.24581E-1,3.4936708E-1,-1.8461539E-1,-1.0196079E0,5.898305E-1,-3.4615386E-1,9.836066E-2,-8.148148E-1,2.2222222E-1,-1.2272727E0,-1.2E0,6.435986E-1,4.1860464E-1,-8.3076924E-1,-1.8439716E-1,9.5652175E-1,4.6153846E-1,-1E0,-8E-1,1E0,-1.443038E0,4.6153846E-1,-1E0,7.046263E-1,-5.263158E-1,1E0,-1.3043479E0,2.6086956E-1,2.4175824E-1,-8.888889E-1,1.2820513E0,-5.4545456E-1,-5E-1,1.1111112E0,-1.1641791E0,6.666667E-1,-1.5733334E0,5E-1,-5E-1,1.1111112E0,4.3137255E-1,1E0,4E-1,-1.0769231E0,-6.666667E-1,1.4782609E0,-0E0,-1.5E0,1.3846154E0,-8.5714287E-1,6.268657E-1,-7.1428573E-1,-1.12E0,1E0,1.5294118E0,-2.2222222E-1,-1.3015873E0,5E-1,-1.8571428E0,-6.086956E-1,7.184466E-1,-1.4814815E-1,1.1147541E0,-2.857143E-1,-0E0,-1.6666666E0,-1.2E0,-0E0,8.965517E-1,-7.692308E-1,5.4545456E-1,-1.2380953E0,-1.4285715E0,3.3333334E-1,1.7333333E0,-0E0,1.8181819E-1,-1.5E0,1E0,-1.1578947E0,8.2828283E-1,-1E0,-9.62963E-1,5.8064514E-1,-1.5384616E-1,1.221239E0,-1E0,4E-1,-6.666667E-1,1.0943396E0,-0E0,-1.1111112E0,-1.5294118E0,-0E0,-1.5789474E0,-0E0,-5E-1,1E0,-1.8181819E-1,-1.6734694E0,-1.4285715E0,-2.2222222E-1,-6.666667E-1,9.361702E-1,5E-1,-1.3043479E0,1.1304348E0,-6.666667E-1,-1E0,6.666667E-1,1.2962962E0,-2.2222222E-1,1.2653061E0,-5E-1,-1.75E0,-4E-1,-1.8E0,-7.692308E-1,1.1466666E0,8.695652E-2,-1.5789474E0,-0E0,-0E0,1.5294118E0,-0E0,-1E0,1.4226804E0,1.3333334E-1,-0E0,1.5121951E0,-1.1111112E0,-0E0,1.3442622E0,2.2222222E-1,-5.882353E-1,1.2E0,8E-1,1.7377049E0,1.1111112E0,-8E-1,-5E-1,5E-1,1.6756756E0,-0E0,1.5384616E-1,1.5384616E0,-8E-1,1E0,5E-1,-1.0769231E0,1.5789474E0,8E-2,1.8596492E0,-0E0,1.7575758E0,5E-1,1E0,-6.666667E-1,1.6666666E0,-0E0,6E-1,-1.1111112E0,-1.5384616E-1,1.2727273E0,6.666667E-1,-1E0],"categories":[],"categories_nodes":[],"categories_segments":[],"categories_sizes":[],"default_left":[1,1,1,1,1,1,1,1,1,1,1,0,1,1,1,1,1,1,1,0,0,1,1,0,1,1,1,1,1,1,1,1,0,0,0,1,0,1,0,0,0,1,1,0,0,0,0,0,1,0,1,1,1,1,0,1,0,1,0,0,1,1,1,1,1,0,0,0,0,1,1,0,1,1,1,0,0,0,1,0,1,1,0,1,1,1,1,0,0,0,1,0,0,0,0,1,0,0,0,0,1,0,0,0,1,0,1,1,1,0,0,1,0,1,0,0,0,0,1,1,1,0,0,0,0,0,0,1,1,1,1,0,0,1,1,1,0,1,1,0,0,0,0,1,0,1,1,0,0,0,0,0,1,0,0,0,0,0,0,0,0,1,0,1,0,0,0],"id":0,"left_children":[1,3,5,7,9,11,13,15,17,19,21,-1,23,25,27,29,31,33,35,-1,-1,37,39,-1,41,43,45,47,49,51,53,55,-1,-1,-1,57,-1,59,-1,-1,-1,61,63,-1,-1,-1,-1,-1,65,-1,67,69,71,73,-1,75,-1,77,-1,-1,79,81,83,85,87,-1,-1,-1,-1,89,91,-1,93,95,97,-1,-1,-1,99,-1,101,103,-1,105,107,109,111,-1,-1,-1,113,-1,-1,-1,-1,115,-1,-1,-1,-1,117,-1,-1,-1,119,-1,121,123,125,-1,-1,127,-1,129,-1,-1,-1,-1,131,133,135,-1,-1,-1,-1,-1,-1,137,139,141,143,-1,-1,145,147,149,-1,151,153,-1,-1,-1,-1,155,-1,157,159,-1,-1,-1,-1,-1,161,-1,-1,-1,-1,-1,-1,-1,-1,163,-1,165,-1,-1,-1],"loss_changes":[2.8121824E1,1.259111E1,1.6719849E1,1.1671683E1,6.8487816E0,7.869709E0,9.983721E0,1.1277698E1,5.247864E0,4.3777776E0,8.682526E0,0E0,7.9516697E0,6.4320683E0,8.7411375E0,1.0797755E1,6.3220835E0,2.58547E0,5.7014923E0,0E0,0E0,5.786751E0,2.58547E0,0E0,5.23864E0,2.8534415E0,6.565217E0,2.934782E0,8.410893E0,8.823848E0,7.0133333E0,3.967823E0,0E0,0E0,0E0,4.4810467E0,0E0,4.0028152E0,0E0,0E0,0E0,6.4699106E0,5.187351E0,0E0,0E0,0E0,0E0,0E0,2.5E0,0E0,1.0285714E0,6.9961596E0,5.2943726E0,6.0819054E0,0E0,2.65098E0,0E0,4.908371E0,0E0,0E0,6.2379866E0,5.6885357E0,8.575866E0,4.308029E0,2.1142857E0,0E0,0E0,0E0,0E0,5.2127514E0,8.547008E-1,0E0,1.8935575E0,2.2556381E0,2.1666667E0,0E0,0E0,0E0,2.8970299E0,0E0,8.8554716E-1,4.6159477E0,0E0,4.02335E0,6.068256E0,2.9230769E0,3.3487358E0,0E0,0E0,0E0,4.244321E0,0E0,0E0,0E0,0E0,1.2157898E0,0E0,0E0,0E0,0E0,1.695633E-2,0E0,0E0,0E0,4.1010666E0,0E0,2.059496E0,2.5933504E0,6.666666E-1,0E0,0E0,3.7787704E0,0E0,3.8267784E0,0E0,0E0,0E0,0E0,8.547008E-1,3.1262646E0,5.0271096E0,0E0,0E0,0E0,0E0,0E0,0E0,3.3667068E0,4.311111E0,1E0,2.533949E0,0E0,0E0,3.2887764E0,4.3777776E0,2.7986426E0,0E0,5.482105E0,3.2315216E0,0E0,0E0,0E0,0E0,1.1875153E-2,0E0,2.9230769E0,2.5641022E0,0E0,0E0,0E0,0E0,0E0,4.537778E0,0E0,0E0,0E0,0E0,0E0,0E0,0E0,0E0,2.7314684E0,0E0,2.9230769E0,0E0,0E0,0E0],"parents":[2147483647,0,0,1,1,2,2,3,3,4,4,5,5,6,6,7,7,8,8,9,9,10,10,12,12,13,13,14,14,15,15,16,16,17,17,18,18,21,21,22,22,24,24,25,25,26,26,27,27,28,28,29,29,30,30,31,31,35,35,37,37,41,41,42,42,48,48,50,50,51,51,52,52,53,53,55,55,57,57,60,60,61,61,62,62,63,63,64,64,69,69,70,70,72,72,73,73,74,74,78,78,80,80,81,81,83,83,84,84,85,85,86,86,90,90,95,95,100,100,104,104,106,106,107,107,108,108,111,111,113,113,118,118,119,119,120,120,127,127,128,128,129,129,130,130,133,133,134,134,135,135,137,137,138,138,143,143,145,145,146,146,152,152,161,161,163,163],"right_children":[2,4,6,8,10,12,14,16,18,20,22,-1,24,26,28,30,32,34,36,-1,-1,38,40,-1,42,44,46,48,50,52,54,56,-1,-1,-1,58,-1,60,-1,-1,-1,62,64,-1,-1,-1,-1,-1,66,-1,68,70,72,74,-1,76,-1,78,-1,-1,80,82,84,86,88,-1,-1,-1,-1,90,92,-1,94,96,98,-1,-1,-1,100,-1,102,104,-1,106,108,110,112,-1,-1,-1,114,-1,-1,-1,-1,116,-1,-1,-1,-1,118,-1,-1,-1,120,-1,122,124,126,-1,-1,128,-1,130,-1,-1,-1,-1,132,134,136,-1,-1,-1,-1,-1,-1,138,140,142,144,-1,-1,146,148,150,-1,152,154,-1,-1,-1,-1,156,-1,158,160,-1,-1,-1,-1,-1,162,-1,-1,-1,-1,-1,-1,-1,-1,164,-1,166,-1,-1,-1],"split_conditions":[5.0280098E1,2.1611156E1,2.361E0,2.5168421E0,1.1219904E4,6.3591143E3,3.1162829E10,3.27076E2,2.8556595E10,9.269375E3,5.981275E0,-2.4000001E-1,2.2334164E1,2.7355724E10,4.367611E4,5.193801E1,6.779284E1,4.4195004E0,4.676381E3,-1.6000001E-1,2E-1,5.424603E10,4.9883698E1,-2E-1,6.080683E2,2.7560837E10,4.3808144E1,2.967805E1,3.6024697E10,-3.7031897E2,1.5271167E2,2.4792104E0,-1.0909092E-1,-1E-1,2.2222224E-1,4.6958E3,1.3333334E-1,6.207152E2,1E-1,-1E-1,2.2222224E-1,5.6793568E1,8.9720276E1,8.0000006E-2,-2.1538463E-1,-1.3333334E-1,2.9565218E-1,-0E0,2.3223684E0,2.769231E-1,5.6342117E4,2.525E0,2.0143559E10,-4.1697095E2,2E-1,5.8405E0,-4.4444446E-2,-6.751701E3,1E-1,-3.7142858E-1,3.93584E1,6.2956917E1,3.489324E10,4.3726116E1,2.300575E0,-0E0,-3.3333334E-1,-2.4000001E-1,-0E0,2.345756E1,3.0786828E10,1.0909092E-1,3.9818334E10,7.2215855E10,4.5740746E1,3.4666666E-1,-0E0,3.636364E-2,2.1287735E1,2E-1,7.384638E1,6.484657E3,-2E-1,6.292285E1,3.754107E4,3.9267642E3,2.3685713E0,-2E-1,8.0000006E-2,-1.3333334E-1,7.163633E2,-0E0,-2.2222224E-1,-3.0588236E-1,-0E0,2.9926758E0,-0E0,-1E-1,2E-1,-3.636364E-2,3.919773E10,-2.857143E-1,-4.4444446E-2,-1.3333334E-1,2.355628E2,1E-1,7.224394E1,3.5375604E10,5.9064017E10,-2E-1,1.3333334E-1,5.856119E0,-4.4444446E-2,3.3383217E1,-1E-1,-3.5E-1,-8.0000006E-2,-3.5999998E-1,1.404834E2,5.5258797E1,5.184813E1,-3.157895E-1,-0E0,-0E0,3.0588236E-1,-0E0,-2E-1,1.708E0,3.867314E1,4.3192295E10,6.932344E1,-2.2222224E-1,-0E0,2.9685154E1,6.6320605E2,5.837758E1,2.4000001E-1,6.366813E2,1.1177946E4,2.2222224E-1,-1.6000001E-1,-1E-1,1E-1,1.4971489E3,-0E0,3.8380733E1,5.1934355E3,-1.6000001E-1,2E-1,1E-1,-2.1538463E-1,3.157895E-1,3.780653E10,3.7192985E-1,-0E0,3.5151514E-1,1E-1,2E-1,-1.3333334E-1,3.3333334E-1,-0E0,3.5639255E10,-2.2222224E-1,5.67435E1,2.5454545E-1,1.3333334E-1,-2E-1],"split_indices":[278,294,115,10,5,6,94,234,4,33,104,0,68,94,75,128,218,14,281,0,0,259,38,0,99,19,218,143,19,234,13,25,0,0,0,131,0,234,0,0,0,23,98,0,0,0,0,0,25,0,30,160,124,294,0,14,0,204,0,0,263,53,199,173,149,0,0,0,0,143,4,0,4,214,8,0,0,0,68,0,8,290,0,9,7,11,85,0,0,0,174,0,0,0,0,219,0,0,0,0,274,0,0,0,114,0,8,169,4,0,0,14,0,53,0,0,0,0,9,83,68,0,0,0,0,0,0,85,38,4,23,0,0,68,279,278,0,234,144,0,0,0,0,9,0,8,249,0,0,0,0,0,19,0,0,0,0,0,0,0,0,64,0,8,0,0,0],"split_type":[0,0,0,0,0,0,0,0,0,0,0,0,0,0,0,0,0,0,0,0,0,0,0,0,0,0,0,0,0,0,0,0,0,0,0,0,0,0,0,0,0,0,0,0,0,0,0,0,0,0,0,0,0,0,0,0,0,0,0,0,0,0,0,0,0,0,0,0,0,0,0,0,0,0,0,0,0,0,0,0,0,0,0,0,0,0,0,0,0,0,0,0,0,0,0,0,0,0,0,0,0,0,0,0,0,0,0,0,0,0,0,0,0,0,0,0,0,0,0,0,0,0,0,0,0,0,0,0,0,0,0,0,0,0,0,0,0,0,0,0,0,0,0,0,0,0,0,0,0,0,0,0,0,0,0,0,0,0,0,0,0,0,0,0,0,0,0],"sum_hessian":[1.8625E2,8.85E1,9.775E1,6.4E1,2.45E1,7.275E1,2.5E1,4.475E1,1.925E1,3.5E0,2.1E1,1.5E0,7.125E1,9.75E0,1.525E1,3.425E1,1.05E1,2.25E0,1.7E1,1.5E0,2E0,1.875E1,2.25E0,2E0,6.925E1,3.75E0,6E0,1.05E1,4.75E0,2.175E1,1.25E1,8.75E0,1.75E0,1E0,1.25E0,1.575E1,1.25E0,1.775E1,1E0,1E0,1.25E0,3.725E1,3.2E1,1.5E0,2.25E0,1.25E0,4.75E0,1.5E0,9E0,2.25E0,2.5E0,1.575E1,6E0,1.15E1,1E0,7.5E0,1.25E0,1.475E1,1E0,1.3E1,4.75E0,2.475E1,1.25E1,2.95E1,2.5E0,1E0,8E0,1.5E0,1E0,1.35E1,2.25E0,1.75E0,4.25E0,9.5E0,2E0,6.5E0,1E0,1.75E0,1.3E1,1E0,3.75E0,2.375E1,1E0,5.75E0,6.75E0,2.25E0,2.725E1,1E0,1.5E0,1.25E0,1.225E1,1E0,1.25E0,3.25E0,1E0,8.5E0,1E0,1E0,1E0,1.75E0,1.125E1,2.5E0,1.25E0,1.25E0,2.25E1,1E0,4.75E0,4.75E0,2E0,1E0,1.25E0,2.6E1,1.25E0,1.125E1,1E0,7E0,1.5E0,9E0,2.25E0,1.775E1,4.75E0,3.75E0,1E0,1.5E0,3.25E0,1E0,1E0,2.325E1,2.75E0,2E0,9.25E0,1.25E0,1E0,1.425E1,3.5E0,3.25E0,1.5E0,9E0,1.425E1,1.25E0,1.5E0,1E0,1E0,8.25E0,1E0,2.25E0,1.2E1,1.5E0,2E0,1E0,2.25E0,3.75E0,5.25E0,1.325E1,1E0,7.25E0,1E0,1E0,1.25E0,1.1E1,1E0,4E0,1.25E0,2.25E0,1.75E0,1.25E0,1E0],"tree_param":{"num_deleted":"0","num_feature":"300","num_nodes":"167","size_leaf_vector":"0"}},{"base_weights":[7.257476E-2,3.713818E-1,-2.0210737E-1,1.1359951E0,2.4469812E-1,2.653596E-1,-4.0138978E-1,-3.351375E-1,1.3716563E0,-7.998934E-2,5.260914E-1,5.479715E-1,-9.3199986E-1,7.9587716E-1,-5.203881E-1,1.6443902E-1,1.5117795E0,7.7630275E-1,-3.56273E-1,8.206142E-1,-1.11031175E-1,-1.2550609E0,7.6635087E-1,-1.276669E0,2.126786E-1,-6.3388747E-1,1.2543373E0,-6.9450843E-1,2.3386818E-1,1.6540633E0,4.4896105E-1,1.1879528E0,-1.022219E0,-5.7058585E-1,8.2821584E-1,9.379188E-1,-6.1497796E-1,-1.0997233E0,4.3427953E-1,1.1740887E0,-7.9890385E-2,2.3578227E-1,1.5131952E0,-1.01807E-1,-9.749709E-1,-1.0946051E0,5.1554745E-1,1.4320554E0,7.726583E-2,-7.713516E-1,9.925806E-1,1.3322263E0,-3.2299376E-1,1.2843386E0,3.2426572E-1,1.7942758E-1,-1.5411067E0,9.7427535E-1,-2.7299744E-1,-7.2674674E-1,1.4355748E0,-1.1190786E0,1.1601014E0,-8.218349E-1,3.7142375E-1,2.4568065E-1,-1.1775849E0,-1.0015738E-1,1.2699618E0,-9.244354E-1,5.339425E-1,1.4063462E0,2.963469E-2,-6.3113135E-1,8.068274E-1,1.2492453E-1,1.1806973E0,-1.2317487E0,6.3499385E-1,1.6394999E0,4.4972876E-1,-1.7603849E-1,-1.3802955E0,6.440597E-1,-1.5073248E0,8.223318E-1,-6.513567E-1,1.103213E0,-9.075228E-1,-1.304371E0,3.7658298E-1,1.005481E0,-7.4156505E-1,1.5571475E0,2.1898648E-1,8.470158E-2,-1.1738831E0,1.5684676E0,9.889119E-2,2.924465E-1,-1.2396557E0,-2.9544526E-1,1.2411712E0,5.474018E-1,1.722416E0,-5.8673453E-1,1.1987488E0,1.2455045E0,-4.7126773E-1,-1.1620586E0,2.6302737E-1,-3.2821596E-1,-1.5168948E0,-1.1070735E0,2.024394E-1,6.7732924E-1,-9.447871E-1,-1.3108648E0,2.759208E-1,4.0473086E-1,1.4399565E0,2.4035624E-1,1.4372886E0,-1.208275E0,3.6902893E-1,-1.3790824E-1,-1.6257223E0,1.1767101E0,-1.8254739E-1,-6.160271E-1,-1.7208768E0,-5.915609E-1,9.688706E-1,-1.7055765E0,-2.1172357E-1,1.5274511E-1,-1.4853729E0,-1.7954106E0,-6.1948943E-1,1.1040989E0,-6.2941736E-1],"categories":[],"categories_nodes":[],"categories_segments":[],"categories_sizes":[],"default_left":[1,1,1,1,1,1,1,0,1,1,1,1,1,1,1,0,1,1,1,1,1,0,1,0,0,0,1,1,1,0,0,1,0,1,1,1,0,1,1,1,1,0,0,1,1,0,1,0,0,1,0,0,0,1,1,0,0,1,1,0,1,1,0,1,1,1,1,1,1,1,0,1,0,1,1,0,0,0,0,1,1,0,0,0,0,1,1,0,0,1,0,0,1,0,0,1,1,0,0,0,0,0,1,0,0,0,0,1,0,0,0,1,1,0,0,1,0,1,0,0,0,0,0,0,1,0,1,0,0,1,0,0,0,1,0,1,0,0,0,0,0],"id":1,"left_children":[1,3,5,7,9,11,13,-1,15,17,19,21,23,25,27,-1,29,31,33,35,37,-1,39,-1,-1,-1,41,43,45,-1,-1,47,-1,49,51,53,-1,55,57,59,61,-1,-1,63,65,-1,67,-1,-1,69,-1,-1,-1,71,73,-1,-1,75,77,-1,79,81,-1,83,85,87,89,91,93,95,-1,97,-1,99,101,-1,-1,-1,-1,103,105,-1,-1,-1,-1,107,109,-1,-1,111,-1,-1,113,-1,-1,115,117,-1,-1,-1,-1,-1,119,-1,-1,-1,-1,121,-1,-1,-1,123,125,-1,-1,127,-1,129,-1,-1,-1,-1,-1,-1,131,-1,133,-1,-1,135,-1,-1,-1,137,-1,139,-1,-1,-1,-1,-1],"loss_changes":[1.4914183E1,8.144089E0,8.942351E0,4.6489525E0,6.973354E0,1.0307307E1,9.945193E0,0E0,1.5464516E0,8.814794E0,7.7421265E0,1.0432237E1,2.59874E0,5.018603E0,8.23325E0,0E0,6.7674637E-1,7.9653554E0,7.573227E0,5.292513E0,7.901927E0,0E0,7.71052E0,0E0,0E0,0E0,1.0180874E0,8.242172E0,5.157288E0,0E0,0E0,2.0265188E0,0E0,8.38487E0,3.153577E0,5.170923E0,0E0,3.2001653E0,3.9295266E0,8.479368E0,1.1753776E1,0E0,0E0,6.1777253E0,8.684727E0,0E0,5.146824E0,0E0,0E0,4.905142E0,0E0,0E0,0E0,2.4783783E0,5.4983554E0,0E0,0E0,8.445358E-1,5.077406E0,0E0,1.9741936E0,9.698386E-1,0E0,8.151758E0,5.6493154E0,6.5982213E0,6.261841E0,5.6227145E0,1.1468148E0,5.165766E0,0E0,3.0204773E0,0E0,2.7188964E0,4.0191364E0,0E0,0E0,0E0,0E0,3.491783E-2,3.567815E0,0E0,0E0,0E0,0E0,5.0415907E0,2.1505473E0,0E0,0E0,5.165848E0,0E0,0E0,1.924433E0,0E0,0E0,3.642664E0,3.5798836E0,0E0,0E0,0E0,0E0,0E0,3.5909367E-1,0E0,0E0,0E0,0E0,8.894739E-1,0E0,0E0,0E0,4.2240615E0,3.098915E0,0E0,0E0,1.8061928E0,0E0,3.20747E0,0E0,0E0,0E0,0E0,0E0,0E0,2.99404E0,0E0,1.9458504E0,0E0,0E0,4.9830737E0,0E0,0E0,0E0,7.607956E-1,0E0,4.1799855E0,0E0,0E0,0E0,0E0,0E0],"parents":[2147483647,0,0,1,1,2,2,3,3,4,4,5,5,6,6,8,8,9,9,10,10,11,11,12,12,13,13,14,14,16,16,17,17,18,18,19,19,20,20,22,22,26,26,27,27,28,28,31,31,33,33,34,34,35,35,37,37,38,38,39,39,40,40,43,43,44,44,46,46,49,49,53,53,54,54,57,57,58,58,60,60,61,61,63,63,64,64,65,65,66,66,67,67,68,68,69,69,71,71,73,73,74,74,79,79,80,80,85,85,86,86,89,89,92,92,95,95,96,96,102,102,107,107,111,111,112,112,115,115,117,117,124,124,126,126,129,129,133,133,135,135],"right_children":[2,4,6,8,10,12,14,-1,16,18,20,22,24,26,28,-1,30,32,34,36,38,-1,40,-1,-1,-1,42,44,46,-1,-1,48,-1,50,52,54,-1,56,58,60,62,-1,-1,64,66,-1,68,-1,-1,70,-1,-1,-1,72,74,-1,-1,76,78,-1,80,82,-1,84,86,88,90,92,94,96,-1,98,-1,100,102,-1,-1,-1,-1,104,106,-1,-1,-1,-1,108,110,-1,-1,112,-1,-1,114,-1,-1,116,118,-1,-1,-1,-1,-1,120,-1,-1,-1,-1,122,-1,-1,-1,124,126,-1,-1,128,-1,130,-1,-1,-1,-1,-1,-1,132,-1,134,-1,-1,136,-1,-1,-1,138,-1,140,-1,-1,-1,-1,-1],"split_conditions":[2.2928572E0,7.785879E-2,3.024864E10,2.5061358E10,3.033506E2,5.7399445E0,2.212709E1,-6.70275E-2,2.464163E10,9.278959E3,6.859358E1,-6.361955E3,5.7154243E1,4.3751664E-2,2.6734883E3,3.2887805E-2,2.3254762E0,7.178085E1,4.686339E10,9.284762E3,5.6463737E1,-2.5101218E-1,1.065323E3,-2.553338E-1,4.253572E-2,-1.267775E-1,2.408421E0,-2.2949004E3,3.0581932E10,3.3081266E-1,8.9792214E-2,3.3491162E2,-2.044438E-1,4.136645E3,3.3106008E4,6.8110565E1,-1.2299559E-1,2.6698811E10,6.967584E1,2.4820587E1,1.9075747E3,4.7156453E-2,3.0263904E-1,-2.2228972E3,1.9121547E4,-2.1892102E-1,4.4265674E3,2.8641108E-1,1.5453166E-2,2.2873683E0,1.9851612E-1,2.6644525E-1,-6.4598754E-2,7.258221E1,2.4808616E10,3.5885517E-2,-3.0822134E-1,6.486963E1,8.114885E1,-1.4534935E-1,1.360377E3,3.632628E1,2.3202029E-1,2.4212499E0,4.450478E4,4.1086804E10,4.957793E3,6.821602E1,3.824037E10,-6.0483057E2,1.0678851E-1,4.1551045E3,5.9269383E-3,4.939283E1,8.272954E2,2.4984907E-2,2.3613946E-1,-2.4634974E-1,1.2699877E-1,2.1425918E4,4.0815225E2,-3.52077E-2,-2.7605912E-1,1.2881194E-1,-3.0146497E-1,7.542383E2,5.9372562E4,2.206426E-1,-1.8150456E-1,3.6830364E1,7.53166E-2,2.010962E-1,8.997954E1,3.114295E-1,4.3797296E-2,2.7180246E4,1.4854001E2,3.1369352E-1,1.9778239E-2,5.84893E-2,-2.4793115E-1,-5.9089053E-2,4.220117E1,1.0948036E-1,3.4448323E-1,-1.17346905E-1,2.3974977E-1,3.5739265E1,-9.425355E-2,-2.3241173E-1,5.2605476E-2,3.9694565E1,-2.904836E3,-2.2141472E-1,4.048788E-2,-2.6143896E2,-1.8895742E-1,-3.3868982E2,5.5184163E-2,8.094617E-2,2.8799132E-1,4.8071247E-2,2.8745773E-1,-2.4165499E-1,2.7386759E1,-2.7581647E-2,6.134E0,2.3534203E-1,-3.650948E-2,9.832124E1,-3.4417537E-1,-1.1831218E-1,1.9377412E-1,6.506062E1,-4.2344715E-2,-2.3743019E2,-2.970746E-1,-3.5908213E-1,-1.2389789E-1,2.2081979E-1,-1.2588347E-1],"split_indices":[55,12,214,184,264,104,68,0,34,36,98,54,143,12,189,0,235,128,244,294,293,0,294,0,0,0,265,204,274,0,0,249,0,41,47,248,0,214,278,143,264,0,0,99,107,0,116,0,0,145,0,0,0,173,274,0,0,173,248,0,114,173,0,295,288,109,9,203,94,84,0,116,0,23,204,0,0,0,0,0,159,0,0,0,0,114,107,0,0,38,0,0,203,0,0,150,13,0,0,0,0,0,38,0,0,0,0,113,0,0,0,218,39,0,0,189,0,294,0,0,0,0,0,0,38,0,44,0,0,283,0,0,0,203,0,234,0,0,0,0,0],"split_type":[0,0,0,0,0,0,0,0,0,0,0,0,0,0,0,0,0,0,0,0,0,0,0,0,0,0,0,0,0,0,0,0,0,0,0,0,0,0,0,0,0,0,0,0,0,0,0,0,0,0,0,0,0,0,0,0,0,0,0,0,0,0,0,0,0,0,0,0,0,0,0,0,0,0,0,0,0,0,0,0,0,0,0,0,0,0,0,0,0,0,0,0,0,0,0,0,0,0,0,0,0,0,0,0,0,0,0,0,0,0,0,0,0,0,0,0,0,0,0,0,0,0,0,0,0,0,0,0,0,0,0,0,0,0,0,0,0,0,0,0,0],"sum_hessian":[1.7979524E2,8.594729E1,9.384795E1,1.10836315E1,7.486366E1,2.7950785E1,6.589717E1,1.4720614E0,9.61157E0,3.5090267E1,3.9773396E1,2.3052153E1,4.898632E0,5.443261E0,6.0453907E1,1.2256492E0,8.385921E0,8.118528E0,2.6971737E1,2.70028E1,1.2770595E1,1.9775453E0,2.1074606E1,3.6763532E0,1.222279E0,1.2287153E0,4.2145457E0,4.917992E1,1.1273988E1,6.9051957E0,1.4807249E0,6.882686E0,1.2358421E0,2.3278229E1,3.6935093E0,2.528351E1,1.7192887E0,4.1783032E0,8.592291E0,1.3960643E1,7.1139636E0,1.2412654E0,2.9732804E0,1.623451E1,3.2945408E1,1.4673903E0,9.806597E0,5.4053717E0,1.4773141E0,2.107766E1,2.2005692E0,2.4594836E0,1.2340257E0,1.5461971E1,9.82154E0,1.2241485E0,2.954155E0,4.658268E0,3.9340227E0,1.4730716E0,1.2487572E1,3.9234152E0,3.1905487E0,6.14625E0,1.0088261E1,4.6598024E0,2.8285606E1,5.8772225E0,3.9293747E0,1.912632E1,1.9513394E0,1.39815445E1,1.480427E0,3.1926708E0,6.6288686E0,1.2246151E0,3.433653E0,1.7400905E0,2.193932E0,9.797825E0,2.6897469E0,1.2141238E0,2.7092912E0,1.9776206E0,4.168629E0,7.13755E0,2.9507113E0,2.6973662E0,1.9624362E0,2.6300768E1,1.9848393E0,1.9493605E0,3.927862E0,2.7078238E0,1.2215508E0,3.9216766E0,1.5204643E1,1.2261511E1,1.7200332E0,1.4743769E0,1.7182939E0,1.9641252E0,4.6647434E0,1.2278275E0,8.569997E0,1.2192552E0,1.4704915E0,5.406207E0,1.7313428E0,1.7194815E0,1.2312298E0,5.157221E0,2.1143547E1,2.706999E0,1.220863E0,2.706021E0,1.2156554E0,1.3979639E1,1.2250042E0,1.4787099E0,3.1860337E0,1.2272753E0,4.1789317E0,1.9557523E0,3.2014687E0,1.7124013E0,1.9431145E1,1.4787564E0,1.2272646E0,6.116542E0,7.863097E0,1.2359755E0,1.9654932E0,1.8197264E1,1.2338815E0,3.6834896E0,2.4330523E0,1.6203884E1,1.99338E0,1.4762774E0,2.2072122E0],"tree_param":{"num_deleted":"0","num_feature":"300","num_nodes":"141","size_leaf_vector":"0"}},{"base_weights":[1.7856311E-2,9.2186284E-1,-6.1297707E-2,1.15689E0,-9.693813E-1,-9.276037E-1,1.0030695E-2,-2.7134988E-2,1.3622842E0,-1.205385E0,9.262479E-1,-3.337718E-1,1.5517116E-1,1.5766777E0,3.9482662E-1,7.25564E-2,-1.4706298E0,2.1303725E-1,-7.461243E-1,9.5502067E-1,7.320714E-2,-3.3640736E-1,9.4461066E-1,-1.6367685E0,-3.2254454E-1,-1.4186446E-1,1.3079953E0,9.029556E-2,-9.3807894E-1,2.1274336E-1,1.3966181E0,2.4750677E-1,-4.876295E-1,-8.585998E-1,2.2562116E-1,-8.1866896E-1,5.796723E-1,-1.2262037E0,-4.4140156E-2,-5.680976E-1,9.2331403E-1,-2.2348566E-2,6.975656E-1,-6.314233E-1,1.1974846E0,-6.3743375E-2,-1.3136816E0,9.7095394E-1,-2.7364367E-1,-1.4165403E-1,1.090228E0,-1.3763882E0,3.562055E-1,9.2461514E-1,-9.767586E-1,2.4331446E-1,-5.588048E-1,-8.034867E-1,7.9290676E-1,-1.334075E0,-2.6551506E-1,1.3873448E0,-1.7913672E-1,7.562391E-1,-8.1453687E-1,-1.4886155E0,-4.390207E-2,2.1666923E-1,1.1665866E0,-1.2580922E0,-2.2080213E-1,-2.2715348E-1,5.9445393E-1,-8.269385E-1,4.3602073E-1,1.0270727E0,4.283901E-2,-1.6660407E0,2.1679254E-1,3.037513E-1,-9.4950056E-1,-1.3296324E0,3.9613378E-1,-2.4571127E-1,-1.6117792E0,8.7460953E-1,-5.119002E-1,7.9644465E-1,-7.8829014E-1,5.73431E-1,-1.0179992E0,1.108353E0,-3.479013E-1,-5.364839E-1,1.1467366E0,-8.748827E-1,7.193707E-1,7.599943E-1,-4.8037446E-1,-1.2865021E0,2.686747E-1,-1.6828723E0,-4.6475247E-1,1.7888872E-1,1.1705678E0,3.6617556E-1,-1.1908015E0,3.1255847E-1,1.3519361E0,-1.187657E0,1.6623633E-1,6.0447365E-2,1.3636703E0,-1.2241824E0,-8.848281E-2,-2.798273E-1,1.1266358E0,-1.9708712E-1,1.021016E0,1.9828077E-1,-1.0265548E0,-2.1605189E-1,-1.5018071E0,1.1288267E0,-8.696501E-1,-1.1445867E-1,-1.3852257E0,7.0449406E-1,-1.0955359E0,1.6293253E0,-9.0080045E-2,1.5815358E-1,-1.3701872E0,9.6120113E-1,-6.9966626E-1,1.4780363E0,1.1260692E-1,1.2342588E0,3.34428E-1,1.2204933E0,-2.8910208E-1,2.5095275E-1,-1.639355E0,1.5798728E0,1.6443372E-1,3.027467E-1,1.4356681E0,-1.0291638E0,7.34606E-1,1.6720269E0,3.4473258E-1],"categories":[],"categories_nodes":[],"categories_segments":[],"categories_sizes":[],"default_left":[1,1,1,1,0,1,1,0,1,1,0,1,1,0,1,0,1,1,1,1,1,0,0,0,0,1,0,1,1,1,0,1,1,1,1,0,1,1,1,0,0,1,1,1,0,0,0,1,1,0,0,1,0,1,1,1,1,0,1,1,1,0,0,0,1,1,0,0,0,0,0,1,1,1,1,1,1,0,0,1,1,0,0,0,1,1,1,1,0,0,1,0,0,0,1,1,1,1,1,1,0,0,0,0,0,1,1,1,1,1,0,1,1,0,0,0,0,0,1,0,0,0,0,0,0,0,0,1,0,0,0,0,1,0,0,1,0,0,0,1,1,0,0,1,0,0,0,0,0,0,0],"id":2,"left_children":[1,3,5,7,-1,9,11,-1,13,15,-1,17,19,-1,21,-1,23,25,27,29,31,-1,-1,-1,-1,33,-1,35,37,39,-1,41,43,45,47,-1,49,51,53,-1,-1,55,57,59,-1,-1,-1,61,63,-1,-1,65,-1,67,69,71,73,-1,75,77,79,-1,-1,-1,81,83,-1,-1,-1,-1,-1,85,87,89,91,93,95,-1,-1,97,99,-1,-1,-1,101,103,105,107,-1,-1,109,-1,-1,-1,111,113,115,117,119,121,-1,-1,-1,-1,-1,123,125,127,129,131,-1,133,135,-1,-1,-1,-1,-1,137,-1,-1,-1,-1,-1,-1,-1,-1,139,-1,-1,-1,-1,141,-1,-1,143,-1,-1,-1,145,147,-1,-1,149,-1,-1,-1,-1,-1,-1,-1],"loss_changes":[1.2764433E1,7.5046015E0,1.0157705E1,3.254158E0,0E0,7.5558395E0,7.672958E0,0E0,1.7198296E0,3.9402447E0,0E0,1.0453043E1,7.0153837E0,0E0,1.6776779E0,0E0,1.2674408E0,8.115066E0,4.299156E0,2.9684696E0,9.809328E0,0E0,0E0,0E0,0E0,4.490264E0,0E0,3.0598216E0,5.467434E0,3.240944E0,0E0,9.279448E0,6.531837E0,1.9914923E0,4.5731316E0,0E0,1.7613525E0,4.334276E0,6.561313E0,0E0,0E0,7.069936E0,4.733366E0,5.4607134E0,0E0,0E0,0E0,2.5774984E0,4.9120827E0,0E0,0E0,2.1745262E0,0E0,3.6144805E-1,5.0424814E-1,5.625654E0,4.7398796E0,0E0,4.7714844E0,4.2205095E0,6.5652966E0,0E0,0E0,0E0,3.9802232E0,1.7140942E0,0E0,0E0,0E0,0E0,0E0,5.1309953E0,6.0206304E0,4.1361494E0,2.5677698E0,4.516325E0,5.3271203E0,0E0,0E0,3.7836723E0,3.4512305E0,0E0,0E0,0E0,2.2592545E-1,4.978733E-1,7.8835115E0,4.2395678E0,0E0,0E0,2.6171598E0,0E0,0E0,0E0,4.5568066E0,8.976178E-1,2.3110278E0,1.807106E0,1.7335145E0,1.0810366E0,0E0,0E0,0E0,0E0,0E0,6.836785E0,1.3650837E0,6.605448E0,3.2564144E0,2.8346357E0,0E0,3.6326628E0,2.1748066E0,0E0,0E0,0E0,0E0,0E0,3.503909E-1,0E0,0E0,0E0,0E0,0E0,0E0,0E0,0E0,4.904289E0,0E0,0E0,0E0,0E0,4.551502E0,0E0,0E0,1.7348061E0,0E0,0E0,0E0,7.5703526E-1,3.6674612E0,0E0,0E0,9.854088E-1,0E0,0E0,0E0,0E0,0E0,0E0,0E0],"parents":[2147483647,0,0,1,1,2,2,3,3,5,5,6,6,8,8,9,9,11,11,12,12,14,14,16,16,17,17,18,18,19,19,20,20,25,25,27,27,28,28,29,29,31,31,32,32,33,33,34,34,36,36,37,37,38,38,41,41,42,42,43,43,47,47,48,48,51,51,53,53,54,54,55,55,56,56,58,58,59,59,60,60,64,64,65,65,71,71,72,72,73,73,74,74,75,75,76,76,79,79,80,80,84,84,85,85,86,86,87,87,90,90,94,94,95,95,96,96,97,97,98,98,99,99,105,105,106,106,107,107,108,108,109,109,111,111,112,112,118,118,127,127,132,132,135,135,139,139,140,140,143,143],"right_children":[2,4,6,8,-1,10,12,-1,14,16,-1,18,20,-1,22,-1,24,26,28,30,32,-1,-1,-1,-1,34,-1,36,38,40,-1,42,44,46,48,-1,50,52,54,-1,-1,56,58,60,-1,-1,-1,62,64,-1,-1,66,-1,68,70,72,74,-1,76,78,80,-1,-1,-1,82,84,-1,-1,-1,-1,-1,86,88,90,92,94,96,-1,-1,98,100,-1,-1,-1,102,104,106,108,-1,-1,110,-1,-1,-1,112,114,116,118,120,122,-1,-1,-1,-1,-1,124,126,128,130,132,-1,134,136,-1,-1,-1,-1,-1,138,-1,-1,-1,-1,-1,-1,-1,-1,140,-1,-1,-1,-1,142,-1,-1,144,-1,-1,-1,146,148,-1,-1,150,-1,-1,-1,-1,-1,-1,-1],"split_conditions":[2.3141112E0,4.648539E4,2.7778862E1,2.271E0,-1.9387625E-1,4.683865E3,-6.722483E2,-5.426998E-3,2.316825E0,2.048128E4,1.8524958E-1,-1.6892705E3,-1.9295879E3,3.1533554E-1,1.1195E3,1.451128E-2,-4.677476E2,4.627793E1,1.9326875E4,2.5565E0,3.9964103E10,-6.728148E-2,1.8892214E-1,-3.273537E-1,-6.450891E-2,3.799588E1,2.6159906E-1,-9.9204004E2,1.4462408E3,-1.5979865E3,2.7932364E-1,8.074182E2,2.5149999E0,3.1234621E10,-4.4865244E3,-1.637338E-1,3.9888847E10,5.1122944E1,1.3435642E3,-1.1361952E-1,1.846628E-1,3.7688486E2,1.5063815E10,4.0497357E10,2.3949693E-1,-1.2748675E-2,-2.6273632E-1,6.4973054E10,2.737806E1,-2.8330807E-2,2.1804559E-1,1.598E2,7.12411E-2,2.9501465E2,4.138446E1,4.938233E1,3.4352583E10,-1.6069734E-1,6.899974E1,4.3130085E10,5.9035386E10,2.7746898E-1,-3.5827346E-2,1.5124783E-1,-3.2486355E3,-3.1500625E3,-8.780414E-3,4.3333847E-2,2.3331733E-1,-2.5161844E-1,-4.4160426E-2,1.673349E10,7.869768E1,1.6168428E10,1.00051465E3,-4.6638046E2,6.9145706E1,-3.3320814E-1,4.335851E-2,2.7902381E0,6.526671E3,-2.6592648E-1,7.9226755E-2,-4.9142253E-2,2.0373633E3,-1.9712646E2,-2.2235312E2,2.6052817E10,-1.5765803E-1,1.14686206E-1,2.4482105E0,2.2167061E-1,-6.9580264E-2,-1.0729678E-1,1.7013159E0,8.7809995E-2,2.6202006E10,3.8325577E1,4.2350944E10,5.3231665E10,5.373494E-2,-3.3657447E-1,-9.295049E-2,3.5777744E-2,2.3411356E-1,2.35E0,3.6488644E1,6.276702E1,2.49E0,2.4645E0,3.3247266E-2,4.9356992E2,4.48604E3,-2.4483648E-1,-1.7696563E-2,-5.596546E-2,2.2532716E-1,-3.9417427E-2,2.0100254E3,3.9656155E-2,-2.0531097E-1,-4.321038E-2,-3.0036142E-1,2.2576535E-1,-1.7393003E-1,-2.2891736E-2,-2.7704513E-1,6.161717E1,-2.1910718E-1,3.2586506E-1,-1.8016009E-2,3.1630717E-2,-3.1275488E2,1.9224022E-1,-1.3993326E-1,4.26568E10,2.2521384E-2,2.4685176E-1,6.6885605E-2,1.965997E10,2.7604652E4,5.019055E-2,-3.27871E-1,4.022566E10,3.2886744E-2,6.0549345E-2,2.8713363E-1,-2.0583276E-1,1.469212E-1,3.344054E-1,6.894652E-2],"split_indices":[284,77,233,179,0,236,99,0,239,213,0,159,204,0,9,0,189,173,213,209,214,0,0,0,0,248,0,204,219,189,0,264,70,199,69,0,79,98,279,0,0,294,94,184,0,0,0,94,158,0,0,88,0,264,23,68,229,0,113,79,274,0,0,0,159,204,0,0,0,0,0,214,8,214,114,204,158,0,0,269,249,0,0,0,144,24,24,184,0,0,190,0,0,0,280,42,214,278,109,244,0,0,0,0,0,280,173,23,10,179,0,24,206,0,0,0,0,0,144,0,0,0,0,0,0,0,0,113,0,0,0,0,204,0,0,4,0,0,0,94,15,0,0,94,0,0,0,0,0,0,0],"split_type":[0,0,0,0,0,0,0,0,0,0,0,0,0,0,0,0,0,0,0,0,0,0,0,0,0,0,0,0,0,0,0,0,0,0,0,0,0,0,0,0,0,0,0,0,0,0,0,0,0,0,0,0,0,0,0,0,0,0,0,0,0,0,0,0,0,0,0,0,0,0,0,0,0,0,0,0,0,0,0,0,0,0,0,0,0,0,0,0,0,0,0,0,0,0,0,0,0,0,0,0,0,0,0,0,0,0,0,0,0,0,0,0,0,0,0,0,0,0,0,0,0,0,0,0,0,0,0,0,0,0,0,0,0,0,0,0,0,0,0,0,0,0,0,0,0,0,0,0,0,0,0],"sum_hessian":[1.7659474E2,1.3360456E1,1.6323428E2,1.22290325E1,1.1314249E0,1.1504447E1,1.5172983E2,1.9360831E0,1.0292949E1,1.0309469E1,1.1949775E0,4.4654507E1,1.07075325E2,7.9102783E0,2.3826709E0,1.8968687E0,8.4126005E0,1.9405191E1,2.5249317E1,8.962516E0,9.811281E1,1.1891565E0,1.1935143E0,6.9772735E0,1.4353272E0,1.531249E1,4.092701E0,4.8118486E0,2.0437468E1,3.895822E0,5.0666943E0,7.527664E1,2.283617E1,4.737047E0,1.0575443E1,1.4485123E0,3.3633363E0,1.5174803E1,5.2626657E0,1.9516611E0,1.944161E0,4.7653774E1,2.7622866E1,2.1616858E1,1.2193115E0,2.139761E0,2.5972865E0,3.8633027E0,6.71214E0,1.6934024E0,1.6699338E0,1.3978331E1,1.1964719E0,2.585532E0,2.6771338E0,3.2236237E1,1.5417539E1,1.2061244E0,2.641674E1,6.496238E0,1.512062E1,2.6849306E0,1.1783723E0,2.1742153E0,4.537925E0,1.2784406E1,1.1939251E0,1.1414316E0,1.4441004E0,1.4669582E0,1.2101758E0,1.3928064E1,1.8308172E1,1.2277235E1,3.1403034E0,1.9850307E1,6.5664334E0,5.289705E0,1.2065337E0,8.5557575E0,6.5648627E0,3.1145415E0,1.423383E0,1.4226596E0,1.1361746E1,2.4349685E0,1.1493096E1,1.6344574E1,1.9635978E0,1.2336863E0,1.1043549E1,1.4676845E0,1.6726189E0,1.1635709E0,1.8686737E1,2.6620922E0,3.9043412E0,5.4281607E0,3.1275966E0,5.098344E0,1.4665186E0,1.0258746E1,1.1030003E0,1.2055272E0,1.2294414E0,5.212282E0,6.280814E0,9.570459E0,6.7741156E0,9.657142E0,1.3864067E0,3.3234262E0,1.536331E1,1.457856E0,1.204236E0,1.2211763E0,2.6831648E0,1.2156625E0,4.212498E0,1.6787E0,1.4488965E0,1.1892277E0,3.9091163E0,3.2767313E0,1.9355509E0,1.2040167E0,5.0767975E0,7.8774853E0,1.6929736E0,5.572319E0,1.2017967E0,1.1693047E0,8.487838E0,1.3999276E0,1.9234986E0,1.3910279E1,1.4530308E0,2.605579E0,1.6069195E0,5.0345554E0,2.8429298E0,1.2182502E0,7.269587E0,1.2721358E1,1.188921E0,1.4133645E0,3.621191E0,1.6469693E0,1.1959605E0,1.1508958E1,1.2124002E0],"tree_param":{"num_deleted":"0","num_feature":"300","num_nodes":"151","size_leaf_vector":"0"}},{"base_weights":[-4.4453792E-2,1.1987015E-1,-4.4632527E-1,2.5291553E-1,-4.0694937E-1,-7.291658E-1,2.1748102E-1,-1.0056456E0,3.1093404E-1,-6.558436E-1,8.0692565E-1,1.00583315E-1,-9.3260133E-1,-6.4182276E-1,6.797625E-1,-1.4258962E0,9.314169E-2,4.1802496E-1,-5.1527065E-1,-1.1916767E0,-1.6847432E-1,1.2580239E0,-2.6993206E-1,-5.4663694E-1,1.1275156E0,-2.4033819E-1,-1.2231712E0,-1.1545115E0,6.6583097E-1,-1.5695077E-1,1.1517398E0,3.0713773E-1,1.1351631E0,-9.7384113E-1,4.141759E-1,-1.4063711E0,2.3901086E-1,1.3180622E-1,-1.1865096E0,5.7116455E-1,-1.164111E0,6.248431E-1,-1.1604326E0,-1.3658745E0,9.080704E-2,6.3243365E-1,-1.0348139E0,-4.7420822E-2,1.4080329E0,1.0218179E0,1.8624201E-1,1.336956E0,-1.4580776E-1,-1.3152521E0,5.2068734E-1,1.113449E0,-6.511264E-1,-1.4968547E-1,-1.5774364E0,-4.2176762E-1,9.638343E-1,-5.767078E-1,1.0720054E0,-8.530356E-2,-1.4647135E0,1.152859E-1,1.3304926E0,9.7597265E-1,7.780313E-2,8.141408E-2,1.534258E0,-2.3924142E-1,-1.5055516E0,6.470708E-1,-9.253894E-1,1.2081064E0,1.3158095E-1,1.3654888E0,2.613537E-1,-1.5582176E0,-9.7322784E-2,8.03291E-1,-8.183085E-1,3.9287716E-1,1.4269562E0,-2.8576064E-1,1.2982829E0,-1.0087331E-1,5.8750695E-1,-5.6677874E-2,-1.1615094E0,1.5161633E0,1.5156987E-1,-4.48445E-1,3.2344574E-1,9.422454E-1,-9.8384523E-1,1.3988838E-1,-9.021665E-1,-2.5880018E-1,7.8084755E-1,1.3456281E0,1.6461048E-2,-1.1650381E0,-3.2721126E-1,-4.5352593E-1,1.2165598E0,-1.1030242E0,3.8916537E-1,3.618182E-1,-9.437174E-1,-2.429179E-1,1.075116E0,2.9135525E-1,1.5643303E0,9.852918E-1,-7.447317E-1,3.6282992E-1,-9.8074985E-1,1.9478744E-1,-1.2489148E0,-4.9905217E-1,1.0013053E0,-1.2578325E0,-6.323903E-2,7.303057E-1,-9.7036713E-1,1.3606994E0,6.995596E-2,-9.966427E-1,-1.361929E-1,1.1011082E0,-4.7865027E-1,-1.3563652E0,3.5142675E-2,1.02771126E-1,-1.4164169E0,-3.602241E-1,-1.5457281E0],"categories":[],"categories_nodes":[],"categories_segments":[],"categories_sizes":[],"default_left":[1,1,1,1,1,1,1,1,1,1,1,1,1,1,1,0,0,1,1,1,1,0,0,1,0,1,1,0,0,1,1,1,1,1,1,1,0,1,0,0,0,1,0,1,0,0,0,0,0,1,1,1,0,1,0,0,0,0,0,1,1,0,1,0,1,1,1,1,1,0,0,0,0,0,1,0,0,0,0,0,0,0,0,0,0,0,1,1,1,0,0,0,0,1,1,1,1,1,1,1,1,1,1,0,0,1,0,1,0,1,1,1,1,0,0,0,1,1,1,0,1,0,0,0,0,0,0,0,0,0,0,0,0,0,0,0,1,0,0],"id":3,"left_children":[1,3,5,7,9,11,13,15,17,19,21,23,25,27,29,-1,-1,31,33,35,37,-1,-1,39,-1,41,43,-1,-1,45,47,49,51,53,55,57,-1,59,-1,-1,-1,61,-1,63,-1,-1,-1,-1,-1,65,67,69,-1,71,-1,-1,-1,-1,-1,73,75,-1,77,-1,79,81,83,85,87,-1,-1,-1,-1,-1,89,-1,-1,-1,-1,-1,-1,-1,-1,-1,-1,-1,91,93,95,-1,-1,-1,-1,97,99,101,103,105,107,109,111,113,115,-1,-1,117,-1,119,-1,121,123,125,127,-1,-1,-1,129,131,133,-1,135,-1,-1,-1,-1,-1,-1,-1,-1,-1,-1,-1,-1,-1,-1,-1,137,-1,-1],"loss_changes":[1.1543635E1,8.81422E0,9.679338E0,7.6032324E0,8.216043E0,6.1348534E0,6.7608643E0,2.2735682E0,8.727718E0,5.4570045E0,2.6603181E0,5.8999057E0,5.506958E0,4.8472137E0,4.4607115E0,0E0,0E0,6.4679337E0,5.2993774E0,3.4552765E0,3.9807127E0,0E0,0E0,4.4953527E0,0E0,8.502935E0,3.8869972E0,0E0,0E0,3.9728835E0,2.2332087E0,6.342668E0,3.0663853E0,4.761959E0,4.074774E0,1.6932831E0,0E0,5.2706585E0,0E0,0E0,0E0,3.6730137E0,0E0,2.174141E0,0E0,0E0,0E0,0E0,0E0,2.8454847E0,5.5671124E0,2.2767582E0,0E0,1.0297842E0,0E0,0E0,0E0,0E0,0E0,4.3868017E0,7.606659E-1,0E0,7.12142E-1,0E0,1.9964905E0,3.1091292E0,1.5389538E-1,3.571096E0,5.4348392E0,0E0,0E0,0E0,0E0,0E0,9.9972534E-1,0E0,0E0,0E0,0E0,0E0,0E0,0E0,0E0,0E0,0E0,0E0,1.381279E0,6.7165604E0,9.548759E0,0E0,0E0,0E0,0E0,6.776558E0,5.700252E0,4.880947E0,1.5919924E-2,8.035501E0,4.112382E0,4.521609E0,3.8193579E0,1.6498985E0,4.4188647E0,0E0,0E0,3.9194756E0,0E0,2.6193686E0,0E0,3.7378466E0,1.2900295E0,3.1530397E0,2.591179E0,0E0,0E0,0E0,3.8055062E-1,2.9989562E0,2.070376E0,0E0,2.7303104E0,0E0,0E0,0E0,0E0,0E0,0E0,0E0,0E0,0E0,0E0,0E0,0E0,0E0,0E0,0E0,8.3971596E-1,0E0,0E0],"parents":[2147483647,0,0,1,1,2,2,3,3,4,4,5,5,6,6,7,7,8,8,9,9,10,10,11,11,12,12,13,13,14,14,17,17,18,18,19,19,20,20,23,23,25,25,26,26,29,29,30,30,31,31,32,32,33,33,34,34,35,35,37,37,41,41,43,43,49,49,50,50,51,51,53,53,59,59,60,60,62,62,64,64,65,65,66,66,67,67,68,68,74,74,86,86,87,87,88,88,93,93,94,94,95,95,96,96,97,97,98,98,99,99,100,100,101,101,102,102,105,105,107,107,109,109,110,110,111,111,112,112,116,116,117,117,118,118,120,120,136,136],"right_children":[2,4,6,8,10,12,14,16,18,20,22,24,26,28,30,-1,-1,32,34,36,38,-1,-1,40,-1,42,44,-1,-1,46,48,50,52,54,56,58,-1,60,-1,-1,-1,62,-1,64,-1,-1,-1,-1,-1,66,68,70,-1,72,-1,-1,-1,-1,-1,74,76,-1,78,-1,80,82,84,86,88,-1,-1,-1,-1,-1,90,-1,-1,-1,-1,-1,-1,-1,-1,-1,-1,-1,92,94,96,-1,-1,-1,-1,98,100,102,104,106,108,110,112,114,116,-1,-1,118,-1,120,-1,122,124,126,128,-1,-1,-1,130,132,134,-1,136,-1,-1,-1,-1,-1,-1,-1,-1,-1,-1,-1,-1,-1,-1,-1,138,-1,-1],"split_conditions":[2.4125E0,6.810512E1,5.2089355E2,1.4602388E10,7.7269646E1,3.190384E1,2.4542856E0,5.0800586E2,4.772021E4,7.306998E1,7.234988E1,-9.155074E2,3.1920267E10,3.8558613E3,3.2913607E10,-2.8517923E-1,1.8628338E-2,3.5944137E4,5.4369086E4,6.7334893E3,4.2636187E3,2.5160477E-1,-5.398641E-2,-2.8916113E3,2.2550312E-1,4.686976E1,5.7391677E10,-2.309023E-1,1.331662E-1,2.9985065E10,2.5149999E0,1.8402472E10,2.4492106E0,6.8472906E10,5.599843E4,2.0810236E10,4.7802173E-2,7.036879E1,-2.3730193E-1,1.1423291E-1,-2.3282221E-1,3.381984E1,-2.3208652E-1,-7.3456426E3,1.8161409E-2,1.2648673E-1,-2.0696278E-1,-9.484164E-3,2.8160658E-1,-2.734829E2,3.5189396E1,-5.047045E3,-2.9161552E-2,3.288469E10,1.0413747E-1,2.2268979E-1,-1.3022529E-1,-2.9937094E-2,-3.154873E-1,3.309707E2,7.4817505E1,-1.1534156E-1,-6.389199E2,-1.7060712E-2,2.9483735E3,2.7318793E4,9.25073E3,2.6453164E10,6.0437183E1,1.6282817E-2,3.068516E-1,-4.7848284E-2,-3.0111033E-1,1.2941417E-1,4.515603E1,2.4162129E-1,2.631619E-2,2.7309775E-1,5.227074E-2,-3.1164354E-1,-1.9464558E-2,1.6065821E-1,-1.636617E-1,7.857543E-2,2.8539124E-1,-5.715213E-2,4.5532385E10,3.3957239E10,4.4865913E10,-1.1335575E-2,-2.3230188E-1,3.0323267E-1,3.0313974E-2,4.615252E1,4.5931644E1,4.7229524E0,1.328275E4,4.8504417E1,3.9226958E10,-7.2267017E2,-1.3258057E1,2.465105E0,4.7444043E2,-2.3300762E-1,-6.544226E-2,-1.1616311E2,2.4331196E-1,1.7645945E10,7.783308E-2,4.5010403E10,-3.702625E2,3.3737929E10,4.763303E10,5.827105E-2,3.1286606E-1,1.9705836E-1,2.3215127E4,2.6035536E10,2.8184046E10,3.8957488E-2,2.4445E0,-9.981044E-2,2.0026107E-1,-2.515665E-1,-1.2647807E-2,1.4606114E-1,-1.9407342E-1,2.7213988E-1,1.3991192E-2,-1.9932854E-1,-2.7238581E-2,2.2022164E-1,-9.573006E-2,-2.7127305E-1,7.028535E-3,2.0554226E-2,4.1131786E1,-7.204482E-2,-3.0914563E-1],"split_indices":[85,98,99,94,233,38,10,144,138,83,68,219,154,39,79,0,0,157,257,54,204,0,0,144,0,128,289,0,0,79,205,19,295,244,48,199,0,188,0,0,0,53,0,9,0,0,0,0,0,99,263,234,0,19,0,0,0,0,0,174,203,0,99,0,159,243,185,19,53,0,0,0,0,0,263,0,0,0,0,0,0,0,0,0,0,0,124,4,154,0,0,0,0,128,98,179,0,158,124,159,279,194,114,0,0,84,0,244,0,79,54,259,4,0,0,0,256,49,169,0,59,0,0,0,0,0,0,0,0,0,0,0,0,0,0,0,278,0,0],"split_type":[0,0,0,0,0,0,0,0,0,0,0,0,0,0,0,0,0,0,0,0,0,0,0,0,0,0,0,0,0,0,0,0,0,0,0,0,0,0,0,0,0,0,0,0,0,0,0,0,0,0,0,0,0,0,0,0,0,0,0,0,0,0,0,0,0,0,0,0,0,0,0,0,0,0,0,0,0,0,0,0,0,0,0,0,0,0,0,0,0,0,0,0,0,0,0,0,0,0,0,0,0,0,0,0,0,0,0,0,0,0,0,0,0,0,0,0,0,0,0,0,0,0,0,0,0,0,0,0,0,0,0,0,0,0,0,0,0,0,0],"sum_hessian":[1.729951E2,1.23285706E2,4.9709404E1,9.884329E1,2.444241E1,3.4788113E1,1.4921292E1,3.6360233E0,9.520727E1,2.0664955E1,3.7774541E0,6.949377E0,2.7838734E1,5.083513E0,9.83778E0,2.414757E0,1.2212662E0,8.472008E1,1.0487196E1,9.154746E0,1.1510209E1,2.5436692E0,1.2337848E0,4.5496664E0,2.399711E0,8.770569E0,1.9068165E1,3.7359E0,1.3476131E0,3.7886996E0,6.04908E0,7.461157E1,1.0108504E1,6.990471E0,3.4967244E0,7.974986E0,1.1797602E0,9.560705E0,1.9495046E0,1.6456237E0,2.9040425E0,4.685552E0,4.0850167E0,1.7164532E1,1.903633E0,2.142087E0,1.6466128E0,1.2087016E0,4.8403783E0,9.71701E0,6.489456E1,8.695055E0,1.4134487E0,5.7881727E0,1.2022985E0,2.083743E0,1.4129813E0,1.1801741E0,6.7948117E0,6.0371127E0,3.523592E0,1.1922368E0,3.4933155E0,1.363385E0,1.5801147E1,2.8170977E0,6.8999114E0,6.869037E0,5.8025524E1,1.372665E0,7.32239E0,1.2090456E0,4.579127E0,1.8423183E0,4.1947947E0,2.3749259E0,1.1486661E0,2.0622704E0,1.4310452E0,1.4659175E1,1.1419723E0,1.7022266E0,1.114871E0,1.1168686E0,5.783043E0,1.4207377E0,5.4482994E0,4.3558285E1,1.4467242E1,1.1615098E0,3.0332847E0,4.307646E0,1.1406536E0,2.3913338E1,1.9644947E1,1.2129355E1,2.3378863E0,1.0713283E1,1.3200054E1,8.833988E0,1.0810959E1,8.132404E0,3.9969516E0,1.2254696E0,1.1124166E0,7.2797647E0,3.4335184E0,1.1549443E1,1.6506116E0,4.8820186E0,3.951969E0,2.4526496E0,8.358309E0,1.7978609E0,6.334543E0,1.6290829E0,2.3678687E0,2.9789522E0,4.3008122E0,1.1332382E0,1.0416204E1,2.1744306E0,2.7075882E0,2.5969245E0,1.3550445E0,1.0474217E0,1.405228E0,6.2335386E0,2.1247704E0,1.2235881E0,1.1442806E0,1.4224335E0,1.5565186E0,2.8951976E0,1.4056149E0,1.1910747E0,9.22513E0,1.419184E0,7.805946E0],"tree_param":{"num_deleted":"0","num_feature":"300","num_nodes":"139","size_leaf_vector":"0"}},{"base_weights":[7.2886094E-2,5.0102687E-1,-5.5921648E-2,6.869749E-1,-3.044131E-1,-3.886848E-1,1.3213405E-1,-8.8806E-1,7.7451545E-1,-1.224612E0,3.2147828E-1,-1.2471393E-1,-8.54963E-1,7.3940194E-1,-2.3378918E-3,8.840899E-1,-2.6981106E-1,-4.9758837E-1,8.3705217E-1,1.6589573E-1,-7.446972E-1,-1.003022E0,6.7281055E-1,-6.4272666E-1,1.0074108E0,-2.6664254E-1,4.362398E-1,1.1263359E0,4.1416255E-1,-1.0149074E0,7.973893E-1,1.0762243E0,1.5179935E-1,-3.22566E-1,9.1487426E-1,-9.8981476E-1,3.633549E-1,6.131237E-1,-1.1766878E0,-3.1525E-1,1.2443165E0,-3.351802E-1,1.0554346E0,6.0725015E-1,-8.6099666E-1,1.2277801E0,-1.838089E-1,-5.433753E-1,8.201457E-1,-7.5987864E-1,5.890903E-1,-3.7611908E-1,1.3318758E0,6.855808E-2,-1.1981043E0,-4.0726715E-1,-1.3690501E0,-1.2973431E-1,1.4164175E0,-1.1752334E-1,-8.0310696E-1,-2.0854005E-1,9.706121E-1,-1.9479439E-1,-1.0742395E0,1.3287518E0,-7.1496344E-3,-1.0439333E0,4.0366033E-1,1.0432777E0,-2.7438116E-1,4.9925703E-1,-9.735881E-1,1.2377229E0,-3.5695913E-1,3.2742456E-1,1.4781924E0,-1.3760673E0,-3.2216936E-1,-1.1097676E0,5.2984697E-1,-4.5505315E-1,-1.4949857E0,1.5171536E0,2.805227E-1,-8.3248305E-1,1.3014576E-1,-1.0200094E0,6.2608635E-1,4.6910298E-1,-1.1063362E0,-4.184555E-1,1.1167177E0,1.4073627E0,1.6360475E-1,1.2015226E0,1.04000635E-1,-1.190901E0,1.6693562E-1,-1.1396568E0,2.4208547E-1,1.0693532E0,-4.911624E-2,1.1943187E-1,-1.2781612E0,1.0271429E0,-1.7982449E-1,-2.4754894E-1,1.2455474E0,1.4921819E0,1.7295405E-1,1.3033599E0,3.6243802E-1,-1.3343016E0,-1.5753411E-1,-9.540885E-3,-1.3639585E0,1.774302E-1,-8.4759307E-1,-4.8853397E-1,6.4544845E-1,-1.3145615E-1,-1.4102187E0,3.889509E-1,-6.56128E-1,-1.9872423E-1,1.4069461E0,1.5861715E0,5.2778226E-1,3.680798E-1,-7.7116215E-1,-1.3438925E0,1.9545355E-1,-3.5062477E-1,-1.5042341E0,1.5002339E0,1.6775711E-1,-1.8611662E-1,8.785722E-1,1.5618019E0,4.579993E-1,-8.708277E-1,4.599383E-1,-5.7833035E-2,1.241422E0,-1.1640589E0,-4.185986E-2,1.0249219E0,-5.96554E-1,5.245519E-1,-6.069912E-1,3.82825E-1,1.3600351E0],"categories":[],"categories_nodes":[],"categories_segments":[],"categories_sizes":[],"default_left":[1,1,1,1,1,1,1,0,1,0,1,1,1,1,1,1,1,0,1,1,1,1,0,0,1,1,1,1,1,0,0,0,0,1,1,1,0,0,1,0,1,1,0,1,1,1,0,1,1,1,1,0,1,0,1,1,1,0,1,1,1,1,1,0,0,1,0,0,0,1,0,0,1,0,0,0,0,0,0,0,0,0,0,0,0,1,1,1,0,1,0,0,1,1,0,1,0,1,0,1,0,0,1,1,1,0,1,0,1,1,0,0,0,0,0,0,0,1,1,0,0,0,1,0,0,0,1,0,0,1,0,0,0,0,0,1,0,1,1,0,0,1,1,1,1,0,0,0,0,0,0,0,0],"id":4,"left_children":[1,3,5,7,9,11,13,-1,15,-1,17,19,21,23,25,27,29,-1,31,33,35,37,-1,-1,39,41,43,45,47,-1,-1,-1,-1,49,51,53,-1,-1,55,-1,57,59,-1,61,63,65,-1,67,69,71,73,-1,75,-1,77,79,81,-1,83,85,87,89,91,-1,-1,93,-1,-1,-1,95,-1,-1,97,-1,-1,-1,-1,-1,-1,-1,-1,-1,-1,-1,-1,99,101,103,-1,105,-1,-1,107,109,-1,111,-1,113,-1,115,-1,-1,117,119,121,-1,123,-1,125,127,-1,-1,-1,-1,-1,-1,-1,129,131,-1,-1,-1,133,-1,-1,-1,135,-1,-1,137,-1,-1,-1,-1,-1,139,-1,141,143,-1,-1,145,147,149,151,-1,-1,-1,-1,-1,-1,-1,-1],"loss_changes":[9.413771E0,6.119275E0,8.294825E0,5.150568E0,5.0556564E0,5.77909E0,6.935707E0,0E0,3.8084507E0,0E0,2.7854347E0,5.8357463E0,4.546216E0,6.35093E0,8.290305E0,2.774292E0,3.7741668E0,0E0,4.6196604E-1,8.491434E0,3.1572466E0,5.2133293E0,0E0,0E0,4.5553474E0,4.3968725E0,6.489284E0,2.645012E0,4.824874E0,0E0,0E0,0E0,0E0,6.1485357E0,5.4021564E0,2.0006952E0,0E0,0E0,1.6320305E0,0E0,2.8960934E0,4.3033743E0,0E0,7.420122E0,2.9451823E-1,2.132431E0,0E0,2.2965407E0,2.315619E0,3.2040148E0,3.6320915E0,0E0,5.5971813E-1,0E0,6.986799E-1,3.472979E0,6.332264E-1,0E0,7.503605E-1,5.534346E0,4.8350782E0,5.5846586E0,3.922041E0,0E0,0E0,1.2117786E0,0E0,0E0,0E0,9.3192434E-1,0E0,0E0,2.4229956E0,0E0,0E0,0E0,0E0,0E0,0E0,0E0,0E0,0E0,0E0,0E0,0E0,2.922823E0,4.0298905E0,3.7217827E0,0E0,2.1572938E0,0E0,0E0,3.0633602E0,1.2723637E0,0E0,3.950882E-2,0E0,9.249973E-1,0E0,1.6122322E0,0E0,0E0,3.911755E0,1.324546E0,1.3255901E0,0E0,1.1680393E0,0E0,3.656887E0,3.907318E-1,0E0,0E0,0E0,0E0,0E0,0E0,0E0,3.3627362E0,2.7312896E0,0E0,0E0,0E0,3.5367393E-1,0E0,0E0,0E0,1.2691536E0,0E0,0E0,4.365489E0,0E0,0E0,0E0,0E0,0E0,6.170273E-2,0E0,3.9157984E0,2.7580209E0,0E0,0E0,9.730587E-1,3.442584E0,1.3301253E0,6.416416E-2,0E0,0E0,0E0,0E0,0E0,0E0,0E0,0E0],"parents":[2147483647,0,0,1,1,2,2,3,3,4,4,5,5,6,6,8,8,10,10,11,11,12,12,13,13,14,14,15,15,16,16,18,18,19,19,20,20,21,21,24,24,25,25,26,26,27,27,28,28,33,33,34,34,35,35,38,38,40,40,41,41,43,43,44,44,45,45,47,47,48,48,49,49,50,50,52,52,54,54,55,55,56,56,58,58,59,59,60,60,61,61,62,62,65,65,69,69,72,72,85,85,86,86,87,87,89,89,92,92,93,93,95,95,97,97,99,99,102,102,103,103,104,104,106,106,108,108,109,109,117,117,118,118,122,122,126,126,129,129,135,135,137,137,138,138,141,141,142,142,143,143,144,144],"right_children":[2,4,6,8,10,12,14,-1,16,-1,18,20,22,24,26,28,30,-1,32,34,36,38,-1,-1,40,42,44,46,48,-1,-1,-1,-1,50,52,54,-1,-1,56,-1,58,60,-1,62,64,66,-1,68,70,72,74,-1,76,-1,78,80,82,-1,84,86,88,90,92,-1,-1,94,-1,-1,-1,96,-1,-1,98,-1,-1,-1,-1,-1,-1,-1,-1,-1,-1,-1,-1,100,102,104,-1,106,-1,-1,108,110,-1,112,-1,114,-1,116,-1,-1,118,120,122,-1,124,-1,126,128,-1,-1,-1,-1,-1,-1,-1,130,132,-1,-1,-1,134,-1,-1,-1,136,-1,-1,138,-1,-1,-1,-1,-1,140,-1,142,144,-1,-1,146,148,150,152,-1,-1,-1,-1,-1,-1,-1,-1],"split_conditions":[2.472225E0,4.6466227E4,4.399473E1,3.338426E3,2.375E0,3.8382442E1,1.9951389E10,-1.7761199E-1,2.477075E0,-2.449224E-1,4.3538447E3,4.9978424E1,6.1280003E0,3.974447E1,7.0856665E2,2.0058945E3,5.498057E1,-9.951767E-2,2.438775E0,4.6225914E1,4.3456064E3,9.222971E3,1.3456212E-1,-1.2854533E-1,3.7608E1,6.3079766E3,3.6876816E3,4.718059E4,2.5504858E3,-2.0298147E-1,1.5947787E-1,2.1524487E-1,3.035987E-2,4.2410734E10,4.9535E-2,1.9251393E10,7.267098E-2,1.2262475E-1,-1.2287573E3,-6.305E-2,3.7224815E1,5.257961E2,2.1108691E-1,4.52593E1,3.2234197E10,4.5900625E3,-3.676178E-2,5.211399E10,8.9194244E1,1.928723E1,4.578009E1,-7.522382E-2,2.8012674E1,1.3711616E-2,3.6170703E10,5.0143784E1,-1.4784229E3,-2.5946861E-2,6.4849686E1,-1.1974556E3,2.0693545E3,-7.790342E2,2.4708736E0,-3.8958877E-2,-2.148479E-1,6.6284823E10,-1.429927E-3,-2.0878665E-1,8.073207E-2,1.3566E2,-5.4876234E-2,9.985141E-2,-1.757334E2,2.4754457E-1,-7.139183E-2,6.548491E-2,2.956385E-1,-2.7521345E-1,-6.443387E-2,-2.2195351E-1,1.0596939E-1,-9.101063E-2,-2.9899713E-1,3.0343074E-1,5.610454E-2,1.5569972E2,3.1875607E1,3.60505E1,1.2521727E-1,5.759226E1,-2.2126725E-1,-8.3691105E-2,2.1581226E10,2.476575E0,3.272095E-2,8.8428986E1,2.0800127E-2,4.6736633E1,3.3387125E-2,-7.8076406E3,4.8417095E-2,2.1387064E-1,4.4231664E10,4.194E0,1.115E0,2.0542859E-1,-3.4230059E3,-4.950979E-2,6.157E1,8.9245E-2,3.459081E-2,2.6067197E-1,7.248761E-2,-2.6686034E-1,-3.150682E-2,-1.9081769E-3,-2.727917E-1,4.5241704E10,4.70682E10,-9.7706795E-2,1.290897E-1,-2.629123E-2,-4.052539E2,7.7790186E-2,-1.312256E-1,-3.9744847E-2,2.8744014E3,3.172343E-1,1.0555645E-1,4.7967857E1,-1.5423243E-1,-2.687785E-1,3.909071E-2,-7.0124954E-2,-3.0084682E-1,8.2156586E1,3.355142E-2,2.775498E10,5.0350933E1,3.1236038E-1,9.159986E-2,6.328336E1,4.9819107E1,3.2119536E10,6.3510002E1,-2.328118E-1,-8.3719725E-3,2.0498438E-1,-1.19310796E-1,1.0491039E-1,-1.2139823E-1,7.6565E-2,2.7200702E-1],"split_indices":[149,257,8,251,224,8,199,0,254,0,191,113,89,98,159,114,203,0,104,173,236,30,0,0,233,9,294,105,204,0,0,0,0,49,27,124,0,0,9,0,38,129,0,278,214,249,0,4,98,128,248,0,38,0,214,98,39,0,233,249,189,294,74,0,0,34,0,0,0,28,0,0,129,0,0,0,0,0,0,0,0,0,0,0,0,193,113,278,0,173,0,0,214,224,0,158,0,128,0,114,0,0,199,14,130,0,294,0,223,282,0,0,0,0,0,0,0,154,124,0,0,0,39,0,0,0,204,0,0,278,0,0,0,0,0,158,0,214,38,0,0,8,233,169,208,0,0,0,0,0,0,0,0],"split_type":[0,0,0,0,0,0,0,0,0,0,0,0,0,0,0,0,0,0,0,0,0,0,0,0,0,0,0,0,0,0,0,0,0,0,0,0,0,0,0,0,0,0,0,0,0,0,0,0,0,0,0,0,0,0,0,0,0,0,0,0,0,0,0,0,0,0,0,0,0,0,0,0,0,0,0,0,0,0,0,0,0,0,0,0,0,0,0,0,0,0,0,0,0,0,0,0,0,0,0,0,0,0,0,0,0,0,0,0,0,0,0,0,0,0,0,0,0,0,0,0,0,0,0,0,0,0,0,0,0,0,0,0,0,0,0,0,0,0,0,0,0,0,0,0,0,0,0,0,0,0,0,0,0],"sum_hessian":[1.6919255E2,3.846153E1,1.3073102E2,3.1367052E1,7.094477E0,4.681874E1,8.391228E1,1.1700943E0,3.0196959E1,2.4847524E0,4.609725E0,3.0703976E1,1.6114765E1,1.43971195E1,6.951516E1,2.7468319E1,2.7286384E0,1.7942204E0,2.8155046E0,2.1403679E1,9.300297E0,1.5004163E1,1.1106027E0,2.1112401E0,1.2285879E1,4.362001E1,2.5895151E1,1.7203262E1,1.0265058E1,1.6356575E0,1.0929807E0,1.6641273E0,1.1513771E0,1.3299478E1,8.104201E0,7.7029886E0,1.5973082E0,1.2103246E0,1.37938385E1,1.8160502E0,1.0469829E1,4.2179844E1,1.4401665E0,2.3349018E1,2.5461338E0,1.6025293E1,1.177968E0,2.955619E0,7.3094387E0,9.100529E0,4.1989493E0,2.0025508E0,6.1016507E0,1.3769913E0,6.3259974E0,3.3823044E0,1.0411533E1,1.1927904E0,9.277039E0,2.9642668E1,1.2537175E1,7.3264217E0,1.6022596E1,1.0813432E0,1.4647907E0,1.474382E1,1.281474E0,1.8666695E0,1.0889494E0,6.1105547E0,1.198884E0,1.1266099E0,7.973919E0,2.3081343E0,1.890815E0,1.1874804E0,4.9141703E0,4.7832236E0,1.5427737E0,1.8278393E0,1.5544652E0,1.8195133E0,8.59202E0,8.213025E0,1.064014E0,7.0190697E0,2.2623598E1,1.1133758E1,1.403418E0,4.4472213E0,2.8792002E0,1.3474967E0,1.4675099E1,1.3617202E1,1.1266178E0,4.990568E0,1.1199862E0,6.6606436E0,1.313275E0,5.4115615E0,1.6075081E0,2.8301713E0,1.9793427E1,2.1557913E0,8.977966E0,2.0776937E0,2.3695276E0,1.1867077E0,1.3488391E1,1.2546292E1,1.0709102E0,3.9570062E0,1.0335622E0,5.59325E0,1.0673938E0,1.068847E0,4.342715E0,1.6024649E1,3.7687764E0,1.0330536E0,1.1227378E0,1.1332219E0,7.8447447E0,1.1635168E0,1.2060107E0,1.3325791E0,1.2155812E1,1.0844657E1,1.7016354E0,1.385252E1,2.1721294E0,2.3582506E0,1.4105259E0,1.024755E0,6.8199897E0,1.1108864E1,1.0469484E0,6.9466133E0,6.9059067E0,1.0018525E1,1.0903391E0,3.203509E0,3.7431042E0,2.163412E0,4.7424946E0,2.0678282E0,1.1356809E0,2.4583352E0,1.2847692E0,1.0716883E0,1.0917239E0,1.0887723E0,3.653722E0],"tree_param":{"num_deleted":"0","num_feature":"300","num_nodes":"153","size_leaf_vector":"0"}},{"base_weights":[9.606483E-2,-6.38312E-1,1.4517948E-1,1.2304139E-2,-1.1477915E0,8.38088E-1,7.806672E-2,-7.627305E-1,7.617219E-1,-1.3643115E0,-1.8160567E-1,-2.2382377E-1,1.0796019E0,-6.9619757E-1,1.6517536E-1,1.8383896E-2,-1.124418E0,9.4638266E-2,1.0289747E0,-9.45336E-1,6.4958984E-1,-5.6691308E-2,1.1948009E0,2.6592493E-1,-1.0367224E0,-9.081366E-2,3.01862E-1,2.8741997E-1,1.4022005E0,-7.478685E-1,7.429248E-1,4.5877874E-1,-1.2267715E0,2.821954E-1,-5.375853E-1,7.1905303E-1,1.6233014E-1,-5.570542E-1,9.4493175E-1,1.4854923E0,3.923723E-1,1.1895568E0,-1.8052492E-1,-1.3674693E0,-2.736555E-1,1.2422298E0,3.357987E-2,-3.3245194E-1,-1.321014E0,-7.3352844E-1,8.488554E-1,-1.4415835E-1,3.4792238E-1,-3.6496052E-1,-1.467409E0,1.3613634E0,3.9667085E-1,-5.7275283E-1,3.5494557E-1,-6.371303E-1,9.2275774E-1,1.2571971E0,4.4692034E-1,-8.212189E-1,1.750026E-1,-7.679718E-1,4.684717E-1,-9.215202E-1,6.5554786E-1,7.2942233E-1,-3.243629E-1,2.6071504E-1,-8.772839E-1,1.147094E0,1.17993474E-1,1.8587588E-1,1.497626E0,7.990833E-1,-3.884965E-1,3.8482875E-1,-1.1503719E0,6.8055934E-1,-3.7737465E-1,-1.382735E0,5.1765186E-1,6.203335E-1,-2.9250196E-1,-1.547499E-1,-1.2522606E0,-6.747471E-1,1.1523333E0,-8.3617544E-1,6.8069607E-1,9.693639E-1,-4.2832667E-1,-1.096509E0,1.1079215E-1,1.0385302E0,-1.22576065E-1,5.104473E-1,-9.856071E-1,1.9691157E-1,-1.4461555E0,-2.0644051E-1,1.0949059E0,4.3928045E-1,-8.9036274E-1,7.6173574E-1,-1.8871665E-1,2.0153295E-1,-1.0050615E0,5.969105E-1,-8.2170117E-1,1.3963622E0,-8.034868E-2,-5.8013156E-2,-1.0451657E0,4.041618E-2,-1.2313685E0,8.932925E-1,-7.656104E-1,8.673833E-2,1.2752992E0,5.470054E-1,-8.183375E-1,1.3504174E0,-6.801762E-2,-4.2704904E-1,1.0970178E0,-1.2534574E0,2.3045178E-1,8.379504E-1,-5.4460436E-1,-9.502141E-1,6.2693685E-1,1.0183047E0,-6.588645E-1,1.6028143E0,1.6089474E-1,-1.4047549E0,-3.589057E-1,7.274167E-2,9.6561503E-1,8.9629185E-1,3.569105E-2,5.778755E-1,-6.742899E-1,1.0810772E0,2.7347854E-1,8.945173E-1,-3.5471354E-2,-1.51627045E-2,1.1488441E0,-7.269102E-1,1.0417721E0,3.8584076E-2,1.2209841E0,1.2811751E0,1.8608488E-1,1.3395289E0,2.5970832E-1],"categories":[],"categories_nodes":[],"categories_segments":[],"categories_sizes":[],"default_left":[1,1,1,1,1,1,1,1,1,0,0,1,1,1,1,0,0,0,0,0,0,0,1,1,1,1,1,1,1,0,1,0,1,1,1,1,1,0,0,0,0,0,0,1,0,1,1,1,0,0,1,1,1,0,0,0,0,1,1,1,1,1,1,1,1,1,1,1,0,1,1,1,1,0,0,0,0,1,1,0,1,1,1,0,0,1,1,1,0,0,1,1,0,0,0,1,1,1,0,0,0,0,0,1,1,1,1,1,1,1,0,0,0,1,0,0,0,0,1,0,0,0,0,0,0,0,0,0,0,0,0,1,0,0,1,0,0,0,0,0,0,1,1,0,0,1,0,1,1,0,0,0,1,0,0,0,1,1,0,0,0],"id":5,"left_children":[1,3,5,7,9,11,13,15,17,-1,-1,19,21,23,25,-1,-1,-1,-1,-1,-1,-1,27,29,31,33,35,37,39,-1,41,-1,43,45,47,49,51,-1,-1,-1,-1,-1,-1,53,-1,55,57,59,-1,-1,61,63,65,-1,-1,-1,-1,67,69,71,73,75,77,79,81,83,85,87,-1,89,91,93,95,-1,-1,-1,-1,97,99,-1,101,103,105,-1,-1,107,109,111,-1,-1,113,115,-1,-1,-1,117,119,121,-1,-1,-1,-1,-1,123,125,127,129,131,133,135,-1,-1,-1,137,-1,-1,-1,-1,139,-1,-1,-1,-1,-1,-1,-1,-1,-1,-1,-1,-1,141,-1,-1,143,-1,-1,-1,-1,-1,-1,145,147,-1,-1,149,-1,151,153,-1,-1,-1,155,-1,-1,-1,157,159,-1,-1,-1],"loss_changes":[6.3313284E0,3.66964E0,7.5116878E0,3.9686892E0,1.0483112E0,3.9053526E0,1.0208345E1,9.718993E-1,5.204699E-1,0E0,0E0,2.8040998E0,1.6136732E0,5.2968316E0,4.7625427E0,0E0,0E0,0E0,0E0,0E0,0E0,0E0,1.6234703E0,2.8778424E0,3.8380432E0,8.130029E0,5.0322084E0,2.337175E0,1.3266754E-1,0E0,1.768542E0,0E0,1.0333815E0,6.342245E0,3.1169224E0,4.7475853E0,3.8939486E0,0E0,0E0,0E0,0E0,0E0,0E0,3.5576248E-1,0E0,1.14068985E-2,4.543293E0,7.8053894E0,0E0,0E0,2.8103247E0,5.8039017E0,6.0609436E0,0E0,0E0,0E0,0E0,4.0733166E0,4.0968337E0,3.6307387E0,6.038835E-1,2.20475E0,3.8131955E0,3.8436985E0,5.458337E0,4.281021E0,4.673438E0,1.5111775E0,0E0,6.7693753E0,3.6991873E0,2.4174366E0,2.8675241E0,0E0,0E0,0E0,0E0,2.0478373E0,2.7593694E0,0E0,3.0667734E0,3.9314094E0,4.3895187E0,0E0,0E0,3.8874674E0,2.718216E0,2.07817E0,0E0,0E0,2.5559168E0,6.6801023E-1,0E0,0E0,0E0,1.6546307E0,2.8854265E0,1.4698863E0,0E0,0E0,0E0,0E0,0E0,2.3154778E0,2.1809034E0,2.9482493E0,2.8089113E0,3.2495136E0,4.117443E0,4.222038E0,0E0,0E0,0E0,1.485673E0,0E0,0E0,0E0,0E0,9.161186E-1,0E0,0E0,0E0,0E0,0E0,0E0,0E0,0E0,0E0,0E0,0E0,0E0,2.5577965E0,0E0,0E0,4.999417E-1,0E0,0E0,0E0,0E0,0E0,0E0,2.2492154E0,1.5403194E0,0E0,0E0,7.072865E-1,0E0,1.454956E0,4.3106275E0,0E0,0E0,0E0,1.4135761E0,0E0,0E0,0E0,8.2626724E-1,6.0476875E-1,0E0,0E0,0E0],"parents":[2147483647,0,0,1,1,2,2,3,3,4,4,5,5,6,6,7,7,8,8,11,11,12,12,13,13,14,14,22,22,23,23,24,24,25,25,26,26,27,27,28,28,30,30,32,32,33,33,34,34,35,35,36,36,43,43,45,45,46,46,47,47,50,50,51,51,52,52,57,57,58,58,59,59,60,60,61,61,62,62,63,63,64,64,65,65,66,66,67,67,69,69,70,70,71,71,72,72,77,77,78,78,80,80,81,81,82,82,85,85,86,86,87,87,90,90,91,91,95,95,96,96,97,97,103,103,104,104,105,105,106,106,107,107,108,108,109,109,113,113,118,118,131,131,134,134,141,141,142,142,145,145,147,147,148,148,152,152,156,156,157,157],"right_children":[2,4,6,8,10,12,14,16,18,-1,-1,20,22,24,26,-1,-1,-1,-1,-1,-1,-1,28,30,32,34,36,38,40,-1,42,-1,44,46,48,50,52,-1,-1,-1,-1,-1,-1,54,-1,56,58,60,-1,-1,62,64,66,-1,-1,-1,-1,68,70,72,74,76,78,80,82,84,86,88,-1,90,92,94,96,-1,-1,-1,-1,98,100,-1,102,104,106,-1,-1,108,110,112,-1,-1,114,116,-1,-1,-1,118,120,122,-1,-1,-1,-1,-1,124,126,128,130,132,134,136,-1,-1,-1,138,-1,-1,-1,-1,140,-1,-1,-1,-1,-1,-1,-1,-1,-1,-1,-1,-1,142,-1,-1,144,-1,-1,-1,-1,-1,-1,146,148,-1,-1,150,-1,152,154,-1,-1,-1,156,-1,-1,-1,158,160,-1,-1,-1],"split_conditions":[-5.232451E3,-7.230411E3,-3.0375703E3,-6.4832637E3,4.5367786E1,-6.5597656E3,-1.7356282E3,-3.6829666E3,3.4959344E10,-2.728623E-1,-3.6321133E-2,2.5548055E0,-4.845922E3,3.9323677E3,4.529493E1,3.6767793E-3,-2.248836E-1,1.8927654E-2,2.0579493E-1,-1.890672E-1,1.2991796E-1,-1.1338262E-2,3.2250232E4,3.0834352E10,2.301425E0,-8.5863293E2,4.655008E1,1.6505345E0,2.0144539E3,-1.495737E-1,3.8578397E10,9.175575E-2,7.01138E1,2.72357E10,6.5876434E1,2.1857073E1,5.944566E1,-1.1141085E-1,1.8898635E-1,2.970985E-1,7.847446E-2,2.3791137E-1,-3.6104985E-2,3.203642E1,-5.47311E-2,6.439595E1,3.1926378E10,5.764237E1,-2.642028E-1,-1.4670569E-1,-1.1297313E2,1.1096984E4,-1.7790063E2,-7.299211E-2,-2.934818E-1,2.7227268E-1,7.933417E-2,5.4366493E1,5.218959E1,-1.354581E3,5.6861977E1,-2.0288975E3,4.0561523E3,5.0205505E1,3.97208E3,2.80485E0,2.3850002E0,3.1920267E10,1.3110958E-1,3.522689E1,7.2284766E2,-2.2320557E2,5.104832E1,2.294188E-1,2.3598695E-2,3.7175175E-2,2.995252E-1,5.8501804E1,4.4743843E1,7.696575E-2,-3.7278302E2,2.4650052E0,-3.9800156E2,-2.76547E-1,1.0353037E-1,8.674231E1,4.37692E3,-9.2782056E2,-2.5045213E-1,-1.3494943E-1,5.8590003E10,2.474238E0,1.3613921E-1,1.938728E-1,-8.566534E-2,1.2637262E0,3.7980005E2,-2.0594553E2,-2.4515213E-2,1.02089465E-1,-1.9712143E-1,3.9382316E-2,-2.8923112E-1,2.375E0,1.4915E2,2.7380396E4,2.5602976E3,5.5468883E4,8.8523865E1,4.9351327E-2,-2.010123E-1,1.193821E-1,-1.6434024E-1,-4.072135E2,-1.6069736E-2,-1.1602632E-2,-2.0903313E-1,8.083236E-3,3.0512592E2,1.786585E-1,-1.5312208E-1,1.7347667E-2,2.5505984E-1,1.09401084E-1,-1.636675E-1,2.700835E-1,-1.3603523E-2,-8.540981E-2,2.1940355E-1,-2.506915E-1,4.6090357E-2,-3.2870264E2,-1.0892087E-1,-1.9004282E-1,8.254271E1,2.0366095E-1,-1.317729E-1,3.2056287E-1,3.217895E-2,-2.80951E-1,-7.178114E-2,6.436886E1,7.4743805E1,1.7925838E-1,7.13821E-3,2.6901897E10,-1.3485798E-1,6.9316084E3,7.4725006E1,1.7890346E-1,-7.094271E-3,-3.032541E-3,5.237559E1,-1.4538203E-1,2.0835443E-1,7.7168155E-3,4.8711924E3,8.134631E1,3.7216976E-2,2.679058E-1,5.1941663E-2],"split_indices":[69,69,39,129,98,24,24,219,109,0,0,59,264,296,278,0,0,0,0,0,0,0,0,199,89,294,248,12,9,0,94,0,278,139,98,203,263,0,0,0,0,0,0,278,0,68,4,98,0,0,144,1,204,0,0,0,0,188,113,219,158,114,11,263,86,14,295,289,0,68,234,69,173,0,0,0,0,293,263,0,39,194,174,0,0,203,41,264,0,0,139,194,0,0,0,85,144,264,0,0,0,0,0,239,133,226,69,211,218,27,0,0,0,219,0,0,0,0,219,0,0,0,0,0,0,0,0,0,0,0,0,39,0,0,248,0,0,0,0,0,0,203,128,0,0,49,0,91,158,0,0,0,248,0,0,0,69,203,0,0,0],"split_type":[0,0,0,0,0,0,0,0,0,0,0,0,0,0,0,0,0,0,0,0,0,0,0,0,0,0,0,0,0,0,0,0,0,0,0,0,0,0,0,0,0,0,0,0,0,0,0,0,0,0,0,0,0,0,0,0,0,0,0,0,0,0,0,0,0,0,0,0,0,0,0,0,0,0,0,0,0,0,0,0,0,0,0,0,0,0,0,0,0,0,0,0,0,0,0,0,0,0,0,0,0,0,0,0,0,0,0,0,0,0,0,0,0,0,0,0,0,0,0,0,0,0,0,0,0,0,0,0,0,0,0,0,0,0,0,0,0,0,0,0,0,0,0,0,0,0,0,0,0,0,0,0,0,0,0,0,0,0,0,0,0],"sum_hessian":[1.7196617E2,1.0028013E1,1.6193816E2,4.8325696E0,5.195443E0,1.3285342E1,1.4865282E2,2.3669488E0,2.4656208E0,3.9076822E0,1.287761E0,2.4752355E0,1.0810106E1,1.43258E1,1.3432701E2,1.0495253E0,1.3174237E0,1.0925773E0,1.3730434E0,1.3103944E0,1.1648409E0,1.0418125E0,9.768294E0,3.8021739E0,1.0523626E1,4.6874767E1,8.745225E1,2.261217E0,7.5070767E0,1.0348638E0,2.7673101E0,1.0271274E0,9.496499E0,2.5747E1,2.1127768E1,2.0877268E1,6.657498E1,1.0567572E0,1.20446E0,6.4999204E0,1.0071564E0,1.6709695E0,1.0963405E0,7.896144E0,1.6003551E0,4.4739914E0,2.1273008E1,1.7872404E1,3.255364E0,1.3310249E0,1.9546244E1,2.5193497E1,4.1381485E1,1.137503E0,6.758641E0,3.3867984E0,1.0871928E0,7.0982428E0,1.4174767E1,1.4777787E1,3.094617E0,8.640329E0,1.0905913E1,7.567315E0,1.762618E1,3.5109475E0,3.787054E1,5.7229977E0,1.3752449E0,9.090017E0,5.0847497E0,3.1005096E0,1.1677278E1,2.087364E0,1.0072529E0,1.9086635E0,6.731666E0,7.702486E0,3.203427E0,1.5861957E0,5.9811196E0,9.0819645E0,8.544216E0,2.3240771E0,1.1868702E0,3.1724363E1,6.146176E0,2.16701E0,3.5559878E0,1.9662144E0,7.123802E0,3.4804246E0,1.604325E0,1.3279463E0,1.7725632E0,9.467071E0,2.2102067E0,6.013401E0,1.689085E0,1.3364912E0,1.866936E0,1.1368917E0,4.844228E0,3.0514445E0,6.03052E0,3.3518682E0,5.192348E0,2.7054396E1,4.6699667E0,4.0531783E0,2.092997E0,1.0681788E0,1.0988312E0,5.8357415E0,1.2880609E0,1.0073197E0,2.473105E0,1.0781449E0,8.3889265E0,1.1574763E0,1.0527304E0,1.4700925E0,4.5433087E0,1.415074E0,1.6363704E0,4.8120213E0,1.2184987E0,1.5979202E0,1.7539481E0,3.8324554E0,1.3598926E0,2.5901781E1,1.1526152E0,2.3298433E0,2.3401237E0,1.9851527E0,2.0680258E0,4.745425E0,1.0903165E0,6.4892087E0,1.8997172E0,3.927933E0,2.1973848E1,1.2532434E0,1.0868802E0,2.4784634E0,1.4494697E0,1.835065E1,3.6231964E0,1.3322606E0,1.1462028E0,1.1135433E0,1.7237108E1,1.5972693E0,2.025927E0,1.1453049E0,1.6091803E1,1.4982435E1,1.1093682E0,1.3878231E1,1.1042043E0],"tree_param":{"num_deleted":"0","num_feature":"300","num_nodes":"161","size_leaf_vector":"0"}},{"base_weights":[2.5322149E-2,2.0832677E-1,-2.1088271E-1,6.879088E-1,8.344831E-2,-4.6239522E-1,1.5499306E-1,8.150167E-1,-7.018863E-1,-1.2294381E-1,4.7525996E-1,-5.825541E-1,4.5520642E-1,9.764961E-1,-1.057809E-1,-7.4601346E-3,1.1258231E0,-5.649554E-1,2.3981108E-1,6.721719E-1,-2.9849133E-1,5.7348615E-1,-6.691187E-1,1.023306E0,-6.407858E-1,1.0327437E-1,1.1171271E0,-2.71371E-1,5.6714535E-1,-6.060589E-1,6.898154E-1,-8.779544E-2,1.2734123E0,-7.2890127E-1,3.439157E-1,7.6126E-1,-4.8122957E-2,-4.4028217E-1,7.8700125E-1,-7.5049675E-1,8.8504696E-1,-1.2657952E-1,9.672898E-1,-8.505682E-1,-5.3251114E-2,1.2030798E0,3.372701E-1,6.493144E-1,-4.7901404E-1,1.0690293E0,-3.0168828E-1,2.156414E-1,-1.0147983E0,8.1699157E-1,2.1837546E-1,2.6764077E-1,1.422383E0,-8.800676E-1,5.2066725E-1,8.395189E-1,-4.9676454E-1,-4.7547716E-1,1.0177094E0,5.259038E-1,-6.644216E-1,8.987146E-1,-2.4612835E-1,-1.0504442E0,-6.1067928E-2,6.598756E-2,-9.8526335E-1,-4.0849468E-1,9.6399707E-1,1.1004328E0,-3.1592393E-1,-8.955625E-1,1.2994593E-1,4.9852334E-2,-1.0614461E0,1.2994891E0,-1.9402933E-1,1.1322827E0,4.1554153E-2,-1.2100472E0,2.6752982E-1,9.746867E-1,-1.7796981E-1,-6.3600826E-1,9.753268E-1,-1.1356658E0,-3.4949514E-1,1.6556747E-1,-1.0262566E0,-1.2273962E-1,-1.1699232E0,1.2007456E0,-5.6299776E-1,-6.7127794E-1,9.1835874E-1,8.601977E-2,-1.1881646E0,4.39908E-3,1.5270201E0,6.787447E-1,-7.8112334E-1,-2.2767659E-1,-1.3596143E0,-8.2361203E-1,9.118793E-1,-7.07129E-2,1.0468425E0,-8.2700115E-1,-1.2338944E-1,2.6739903E-2,-1.2362763E0,6.7663133E-1,-8.519483E-1,-7.391398E-1,9.7300094E-1,5.179769E-1,-6.6472405E-1,-2.2938535E-1,-1.3508925E0,-1.0305027E0,5.1929927E-1,-2.0542768E-1,-1.278189E0,9.724897E-1,-1.21528625E-1,1.152683E-1,1.141158E0,-5.6312585E-1,-1.4722104E0,-1.1012194E0,-3.1233715E-2,-1.6287923E-1,-1.3669277E0,3.7980527E-2,1.2255976E0,-9.774659E-1,4.3817577E-1,-4.0389493E-1,-1.5309399E0,-1.4469209E0,-3.1054798E-1,2.9043055E-1,1.3471262E0,-1.4158468E-1,-1.1690345E0,4.0052578E-1,1.401549E0],"categories":[],"categories_nodes":[],"categories_segments":[],"categories_sizes":[],"default_left":[1,1,1,1,1,1,1,1,0,1,1,1,1,1,1,1,1,1,1,1,1,1,1,0,0,0,1,1,1,1,1,0,1,1,1,1,1,0,1,1,0,0,0,1,1,0,0,1,1,0,0,0,0,0,0,0,0,1,0,0,0,0,1,1,1,1,0,0,0,1,1,1,0,0,0,1,1,1,1,1,0,0,1,1,1,1,0,1,0,1,1,1,0,1,1,0,1,0,0,0,1,0,0,1,0,0,0,0,0,0,1,0,0,0,1,0,1,0,0,0,0,0,0,0,0,0,1,0,0,0,1,1,1,0,0,0,1,0,1,1,0,0,0,0,0,0,1,0,0,0,0],"id":6,"left_children":[1,3,5,7,9,11,13,15,-1,17,19,21,23,25,27,29,31,33,35,37,39,41,43,-1,-1,-1,45,47,49,51,53,-1,55,57,59,61,63,-1,65,67,-1,-1,-1,69,71,-1,-1,73,75,-1,-1,-1,-1,-1,-1,-1,-1,77,-1,-1,-1,-1,79,81,83,85,-1,-1,-1,87,89,91,-1,-1,-1,93,95,97,99,101,-1,-1,103,105,107,109,-1,111,-1,113,115,117,-1,119,121,-1,123,-1,-1,-1,125,-1,-1,127,-1,-1,-1,-1,-1,-1,129,-1,-1,-1,131,-1,133,-1,-1,-1,-1,-1,-1,-1,-1,-1,135,-1,-1,-1,137,139,141,-1,-1,-1,143,-1,145,147,-1,-1,-1,-1,-1,-1,149,-1,-1,-1,-1],"loss_changes":[7.0396852E0,5.4339685E0,6.6188116E0,3.8940268E0,6.033422E0,4.941696E0,6.4729066E0,4.5310144E0,0E0,8.022519E0,4.115996E0,4.1806583E0,4.0629964E0,7.7640533E-1,2.7692962E0,2.8579085E0,2.4128227E0,3.5988774E0,4.198386E0,3.0025578E0,3.823547E0,9.9958515E-1,3.9508743E0,0E0,0E0,0E0,6.6604614E-3,4.041301E0,2.484779E0,1.454003E0,1.1521935E-2,0E0,1.3450737E0,4.1146107E0,2.1308203E0,3.6301985E0,6.999766E0,0E0,2.4378033E0,9.314902E-1,0E0,0E0,0E0,3.466875E0,3.7201807E0,0E0,0E0,2.0960848E0,4.301049E0,0E0,0E0,0E0,0E0,0E0,0E0,0E0,0E0,3.0281563E0,0E0,0E0,0E0,0E0,3.1663198E0,2.9754612E0,5.158112E0,1.608736E0,0E0,0E0,0E0,3.4723785E0,1.9063606E0,2.8384547E0,0E0,0E0,0E0,1.9603767E0,6.296099E0,3.0178382E0,2.2550068E0,2.0720663E0,0E0,0E0,4.073459E0,5.9811497E-1,3.7951288E0,1.3219967E0,0E0,2.0407856E-1,0E0,2.2591743E0,3.697126E0,4.1973596E0,0E0,1.635069E0,9.166317E-1,0E0,3.206316E0,0E0,0E0,0E0,9.2298126E-1,0E0,0E0,1.1393948E0,0E0,0E0,0E0,0E0,0E0,0E0,1.2337894E0,0E0,0E0,0E0,1.9565907E0,0E0,8.8740706E-1,0E0,0E0,0E0,0E0,0E0,0E0,0E0,0E0,0E0,9.7337914E-1,0E0,0E0,0E0,1.2574406E0,2.9887257E0,1.5765762E-1,0E0,0E0,0E0,4.851532E-1,0E0,1.0829258E0,5.83035E-1,0E0,0E0,0E0,0E0,0E0,0E0,1.5867233E-2,0E0,0E0,0E0,0E0],"parents":[2147483647,0,0,1,1,2,2,3,3,4,4,5,5,6,6,7,7,9,9,10,10,11,11,12,12,13,13,14,14,15,15,16,16,17,17,18,18,19,19,20,20,21,21,22,22,26,26,27,27,28,28,29,29,30,30,32,32,33,33,34,34,35,35,36,36,38,38,39,39,43,43,44,44,47,47,48,48,57,57,62,62,63,63,64,64,65,65,69,69,70,70,71,71,75,75,76,76,77,77,78,78,79,79,82,82,83,83,84,84,85,85,87,87,89,89,90,90,91,91,93,93,94,94,96,96,100,100,103,103,110,110,114,114,116,116,126,126,130,130,131,131,132,132,136,136,138,138,139,139,146,146],"right_children":[2,4,6,8,10,12,14,16,-1,18,20,22,24,26,28,30,32,34,36,38,40,42,44,-1,-1,-1,46,48,50,52,54,-1,56,58,60,62,64,-1,66,68,-1,-1,-1,70,72,-1,-1,74,76,-1,-1,-1,-1,-1,-1,-1,-1,78,-1,-1,-1,-1,80,82,84,86,-1,-1,-1,88,90,92,-1,-1,-1,94,96,98,100,102,-1,-1,104,106,108,110,-1,112,-1,114,116,118,-1,120,122,-1,124,-1,-1,-1,126,-1,-1,128,-1,-1,-1,-1,-1,-1,130,-1,-1,-1,132,-1,134,-1,-1,-1,-1,-1,-1,-1,-1,-1,136,-1,-1,-1,138,140,142,-1,-1,-1,144,-1,146,148,-1,-1,-1,-1,-1,-1,150,-1,-1,-1,-1],"split_conditions":[3.567505E2,2.2451005E10,1.8935337E3,8.763037E2,4.8280743E1,4.9031897E10,2.1904697E4,1.5883274E10,-1.4037727E-1,3.0292387E4,5.8695023E1,-2.4066875E3,5.873139E1,1.0391534E3,7.4252646E3,2.7023357E4,9.156077E3,4.4774375E10,3.345125E1,-2.1942742E3,7.139039E1,3.123553E10,6.3611553E1,2.046612E-1,-1.2815717E-1,2.0654874E-2,4.152702E3,2.7554509E10,8.21982E1,1.4442951E10,2.7674852E4,-1.7559087E-2,-1.2816963E3,1.2455653E3,-1.813215E2,2.839629E10,-5.865753E2,-8.805644E-2,7.204497E1,5.103739E1,1.7700939E-1,-2.5315905E-2,1.9345796E-1,2.4325E0,3.6660048E10,2.4061596E-1,6.7454025E-2,2.125498E3,5.6017607E3,2.1380587E-1,-6.033766E-2,4.3128278E-2,-2.0295966E-1,1.6339831E-1,4.367509E-2,5.3528156E-2,2.844766E-1,2.7852358E1,1.0413345E-1,1.6790378E-1,-9.935291E-2,-9.509543E-2,5.6243184E4,2.4450002E0,2.2124873E3,1.6015262E2,-4.922567E-2,-2.1008885E-1,-1.2213586E-2,3.8913475E10,2.455E0,6.249765E1,1.9279942E-1,2.2008656E-1,-6.318479E-2,5.8675243E1,5.676756E3,3.358108E10,2.3833178E10,2.46635E0,-3.880587E-2,2.2645655E-1,3.4428027E10,3.7381145E1,-3.7702363E3,6.501E1,-3.5593964E-2,3.132272E2,1.9506536E-1,1.135E0,2.38912E4,5.942044E1,-2.0525132E-1,4.904968E4,5.6219185E1,2.4014913E-1,4.671442E4,-1.3425559E-1,1.8367176E-1,1.7203955E-2,2.5439793E10,8.7981595E-4,3.0540404E-1,4.662487E1,-1.5622467E-1,-4.553532E-2,-2.7192286E-1,-1.6472241E-1,1.8237586E-1,-1.414258E-2,-2.1733574E3,-1.6540024E-1,-2.4677888E-2,5.3479807E-3,2.385384E10,1.3532627E-1,1.0704583E3,-1.4782797E-1,1.946002E-1,1.03595376E-1,-1.329448E-1,-4.587707E-2,-2.7017853E-1,-2.0610054E-1,1.0385986E-1,-4.1085538E-2,2.7613493E1,1.9449794E-1,-2.4305725E-2,2.305366E-2,2.5217958E10,2.2575953E0,2.3836645E10,-2.2024389E-1,-6.2467433E-3,-3.2575846E-2,6.0077972E1,7.5961053E-3,4.6902634E1,4.0853523E1,8.763515E-2,-8.0778986E-2,-3.06188E-1,-2.893842E-1,-6.2109597E-2,5.808611E-2,2.6511532E10,-2.8316936E-2,-2.338069E-1,8.0105156E-2,2.803098E-1],"split_indices":[129,139,159,159,188,79,22,214,0,165,113,159,263,219,249,185,107,244,143,174,233,184,263,0,0,0,219,64,263,214,60,0,114,264,204,124,24,0,203,8,0,0,0,134,64,0,0,294,114,0,0,0,0,0,0,0,0,218,0,0,0,0,258,25,39,13,0,0,0,169,280,113,0,0,0,128,129,274,184,299,0,0,79,38,144,178,0,264,0,205,16,233,0,0,68,0,0,0,0,0,19,0,0,113,0,0,0,0,0,0,279,0,0,0,244,0,264,0,0,0,0,0,0,0,0,0,8,0,0,0,139,115,259,0,0,0,23,0,203,248,0,0,0,0,0,0,79,0,0,0,0],"split_type":[0,0,0,0,0,0,0,0,0,0,0,0,0,0,0,0,0,0,0,0,0,0,0,0,0,0,0,0,0,0,0,0,0,0,0,0,0,0,0,0,0,0,0,0,0,0,0,0,0,0,0,0,0,0,0,0,0,0,0,0,0,0,0,0,0,0,0,0,0,0,0,0,0,0,0,0,0,0,0,0,0,0,0,0,0,0,0,0,0,0,0,0,0,0,0,0,0,0,0,0,0,0,0,0,0,0,0,0,0,0,0,0,0,0,0,0,0,0,0,0,0,0,0,0,0,0,0,0,0,0,0,0,0,0,0,0,0,0,0,0,0,0,0,0,0,0,0,0,0,0,0],"sum_hessian":[1.6083914E2,9.06918E1,7.014734E1,1.7805006E1,7.28868E1,4.141428E1,2.8733057E1,1.6691963E1,1.1130426E0,4.8188873E1,2.4697927E1,3.6941914E1,4.472368E0,6.2619004E0,2.2471157E1,4.8454924E0,1.184647E1,2.1470263E1,2.671861E1,1.9792274E1,4.9056535E0,2.1816583E0,3.4760254E1,2.9892378E0,1.4831297E0,1.109158E0,5.1527424E0,1.8512444E1,3.958713E0,2.6776206E0,2.1678717E0,1.3283833E0,1.0518087E1,1.8356972E1,3.1132905E0,8.920217E0,1.7798393E1,1.5866596E0,1.8205614E1,3.8146765E0,1.0909768E0,1.0297109E0,1.1519474E0,2.6555325E1,8.20493E0,4.15239E0,1.0003526E0,3.0153527E0,1.549709E1,2.363191E0,1.5955222E0,1.0464122E0,1.6312084E0,1.1300558E0,1.0378158E0,1.7176963E0,8.80039E0,1.6639692E1,1.7172801E0,1.9594967E0,1.1537937E0,1.3853301E0,7.5348864E0,9.291174E0,8.507219E0,1.6546526E1,1.6590883E0,2.2932959E0,1.5213808E0,3.4678504E0,2.3087473E1,6.524778E0,1.6801523E0,1.9594921E0,1.0558605E0,8.922895E0,6.574195E0,2.8341691E0,1.3805523E1,6.0545373E0,1.4803493E0,3.5318081E0,5.759366E0,5.1775436E0,3.329676E0,1.5544427E1,1.0020993E0,2.1266735E0,1.341177E0,1.803474E1,5.0527334E0,3.7614222E0,2.7633555E0,2.716994E0,6.2059016E0,2.2949739E0,4.279221E0,1.6725347E0,1.1616346E0,1.4049104E0,1.2400613E1,1.0570748E0,4.9974623E0,3.344161E0,2.415205E0,1.0173997E0,4.160144E0,1.1329427E0,2.1967332E0,1.0049284E0,1.4539498E1,1.1025832E0,1.0240902E0,1.4951155E0,1.6539625E1,1.5469155E0,3.5058177E0,1.813748E0,1.9476742E0,1.2653883E0,1.4516058E0,1.3672963E0,4.838605E0,3.021794E0,1.2574269E0,1.3160512E0,1.1084561E1,2.2888339E0,1.055327E0,1.5409878E0,1.299851E1,5.1714892E0,1.1368135E1,2.4269211E0,1.0788965E0,1.0259131E0,1.0058648E1,1.027276E0,1.1971234E1,3.6746984E0,1.496791E0,1.002861E0,1.0365274E1,9.006912E0,1.051736E0,1.7666448E0,1.020459E1,1.0094018E0,2.6652966E0,1.0092773E0,9.1953125E0],"tree_param":{"num_deleted":"0","num_feature":"300","num_nodes":"151","size_leaf_vector":"0"}},{"base_weights":[1.2038932E-2,5.481011E-1,-4.5987107E-2,7.350384E-1,-8.0940074E-1,-3.0211055E-1,1.7428221E-1,-1.0768263E-1,9.248409E-1,-8.388812E-1,-1.2753151E-1,4.3675673E-1,-9.0220466E-2,5.227946E-1,-7.236781E-1,1.0906813E0,-4.1789114E-1,1.9673308E-2,-1.0392731E0,6.7031133E-1,-2.50335E-1,1.1829239E0,2.4418928E-1,-2.9361323E-1,6.0933965E-1,-2.5693312E-1,1.259212E0,-5.2181405E-1,7.5174314E-1,1.1853428E-1,-1.1840003E0,1.0474987E0,-4.673251E-1,-7.872388E-1,-7.3855065E-2,4.1088042E-1,-6.9433504E-1,3.0231908E-1,-5.337756E-1,-4.5871615E-1,8.400683E-1,1.4189014E0,-1.5926963E-2,-4.251353E-2,-1.3108593E0,2.7639917E-1,1.2785736E0,2.5534E-1,-9.8121184E-1,8.5112876E-1,-1.9988117E-1,-4.4862074E-1,5.099256E-1,3.3383057E-1,-1.1478683E0,6.217662E-1,-7.380584E-1,-6.8807614E-1,7.088812E-1,1.0708618E0,-1.6847616E-1,-1.4054859E0,-2.7548715E-1,-1.2332613E0,-1.05969176E-1,1.0679994E0,5.163682E-2,-3.3230546E-1,6.346304E-1,-1.0609596E0,5.0456196E-1,6.882341E-1,3.3536524E-2,9.57567E-1,-6.1820847E-1,-7.899542E-1,5.0659734E-1,1.2290931E0,2.9903027E-1,6.500788E-1,-8.5329944E-1,-5.206472E-1,2.1116248E-1,-2.3711906E-1,1.0349585E0,8.467293E-1,-7.293182E-2,-6.2865204E-1,6.872951E-1,1.1379807E0,3.5715122E-3,3.4117147E-1,-8.9655733E-1,-1.3920644E-1,-1.1363105E0,6.984458E-1,-5.5996907E-1,7.744944E-2,1.0262861E0,6.5948707E-1,-6.359527E-1,1.8850783E-1,-9.755413E-1,1.0054897E0,-6.423054E-2,3.829547E-1,-9.9951285E-1,5.124349E-1,-4.825084E-1,-9.809726E-2,-1.3027905E0,-5.2853264E-2,9.8757434E-1,-8.571151E-1,4.355814E-2,-1.0113087E0,8.6394817E-1,3.1118548E-1,1.15722E0,-1.0878271E0,1.436691E-1,-2.989386E-1,9.613758E-1,-1.0464945E0,-6.664459E-2,8.826796E-1,-4.0216526E-1,2.4001825E-1,1.3382759E0,-2.1165882E-1,-1.1557542E0,9.2491627E-1,-4.9735922E-1,-1.217605E0,-1.9529656E-1,-1.0160117E0,2.2466262E-1,-3.3693284E-1,-1.3009791E0,7.545926E-1,-4.161396E-1,-1.3698063E0,-3.682337E-1],"categories":[],"categories_nodes":[],"categories_segments":[],"categories_sizes":[],"default_left":[1,1,1,1,0,1,1,1,1,1,1,1,1,0,0,1,0,1,1,1,1,0,1,1,1,0,1,0,0,0,1,1,0,1,1,1,1,1,1,0,1,0,0,0,1,0,0,0,1,1,1,1,1,0,0,1,0,1,0,1,0,0,0,0,1,0,0,1,1,0,0,1,1,1,0,1,0,0,0,0,0,1,1,0,0,1,1,1,1,0,0,0,1,1,1,1,1,1,1,0,0,0,0,0,0,0,1,1,1,0,0,0,0,0,0,0,0,1,1,1,0,0,0,0,1,0,0,0,0,0,1,0,1,1,0,0,1,0,1,0,0,0,0],"id":7,"left_children":[1,3,5,7,-1,9,11,13,15,17,19,21,23,-1,-1,25,-1,27,29,31,33,-1,35,37,39,-1,41,-1,-1,-1,43,45,-1,47,49,51,53,55,57,-1,59,-1,-1,-1,61,-1,-1,-1,63,65,67,69,71,-1,-1,73,-1,75,-1,77,-1,-1,-1,-1,79,-1,-1,81,83,-1,-1,85,87,89,-1,91,-1,-1,-1,-1,-1,93,95,-1,-1,97,99,101,103,-1,-1,-1,105,107,109,111,113,115,117,-1,-1,-1,-1,-1,-1,-1,119,121,123,-1,-1,-1,-1,-1,-1,-1,-1,125,127,129,-1,-1,-1,-1,131,-1,-1,-1,-1,-1,133,-1,135,137,-1,-1,139,-1,141,-1,-1,-1,-1],"loss_changes":[5.0002193E0,4.578867E0,8.246564E0,2.3905568E0,0E0,6.2202973E0,5.5045557E0,1.7487471E0,3.0821466E0,2.8405762E0,5.2752924E0,5.413048E0,5.8756366E0,0E0,0E0,2.7706432E0,0E0,2.010924E0,2.3703594E0,3.5899203E0,4.2913594E0,0E0,5.417032E0,4.697377E0,2.687928E0,0E0,2.0072556E0,0E0,0E0,0E0,1.6704617E0,6.6842794E-1,0E0,2.526126E0,4.32608E0,2.6535373E0,2.8635333E0,3.6966715E0,4.8885303E0,0E0,2.051145E0,0E0,0E0,0E0,6.606121E-1,0E0,0E0,0E0,2.0077887E0,7.190428E-1,3.7677808E0,2.5636477E0,2.18617E0,0E0,0E0,3.9215245E0,0E0,2.9468431E0,0E0,4.4781876E-1,0E0,0E0,0E0,0E0,2.3974626E0,0E0,0E0,3.020441E0,1.903669E0,0E0,0E0,2.338688E0,3.9536471E0,1.146451E0,0E0,2.6777668E0,0E0,0E0,0E0,0E0,0E0,4.86857E0,3.4082708E0,0E0,0E0,2.089178E0,2.1403725E0,1.4774978E0,1.1576746E0,0E0,0E0,0E0,2.7871351E0,3.4588783E0,1.2633829E0,1.2176578E0,6.944568E-1,4.3440886E0,8.2408714E-1,0E0,0E0,0E0,0E0,0E0,0E0,0E0,1.889719E0,2.2684226E0,2.256365E0,0E0,0E0,0E0,0E0,0E0,0E0,0E0,0E0,1.7105739E0,1.3929672E0,7.1089935E-1,0E0,0E0,0E0,0E0,3.3541129E0,0E0,0E0,0E0,0E0,0E0,6.3401604E-1,0E0,2.240944E0,5.5999947E-1,0E0,0E0,1.355079E0,0E0,2.7054977E-1,0E0,0E0,0E0,0E0],"parents":[2147483647,0,0,1,1,2,2,3,3,5,5,6,6,7,7,8,8,9,9,10,10,11,11,12,12,15,15,17,17,18,18,19,19,20,20,22,22,23,23,24,24,26,26,30,30,31,31,33,33,34,34,35,35,36,36,37,37,38,38,40,40,44,44,48,48,49,49,50,50,51,51,52,52,55,55,57,57,59,59,64,64,67,67,68,68,71,71,72,72,73,73,75,75,81,81,82,82,85,85,86,86,87,87,88,88,92,92,93,93,94,94,95,95,96,96,97,97,98,98,106,106,107,107,108,108,117,117,118,118,119,119,124,124,130,130,132,132,133,133,136,136,138,138],"right_children":[2,4,6,8,-1,10,12,14,16,18,20,22,24,-1,-1,26,-1,28,30,32,34,-1,36,38,40,-1,42,-1,-1,-1,44,46,-1,48,50,52,54,56,58,-1,60,-1,-1,-1,62,-1,-1,-1,64,66,68,70,72,-1,-1,74,-1,76,-1,78,-1,-1,-1,-1,80,-1,-1,82,84,-1,-1,86,88,90,-1,92,-1,-1,-1,-1,-1,94,96,-1,-1,98,100,102,104,-1,-1,-1,106,108,110,112,114,116,118,-1,-1,-1,-1,-1,-1,-1,120,122,124,-1,-1,-1,-1,-1,-1,-1,-1,126,128,130,-1,-1,-1,-1,132,-1,-1,-1,-1,-1,134,-1,136,138,-1,-1,140,-1,142,-1,-1,-1,-1],"split_conditions":[2.9225391E1,6.8472906E10,5.116561E1,2.9385727E1,-1.6188015E-1,-1.4653037E3,6.2941345E1,4.227822E1,1.6605925E3,2.34125E0,3.746148E1,4.5294254E1,7.931703E1,1.0455892E-1,-1.4473562E-1,1.0278707E4,-8.357823E-2,4.1779453E3,-7.565378E3,4.4000174E10,-1.3503857E3,2.3658478E-1,4.7178848E4,4.768402E1,2.5297625E10,-5.1386625E-2,4.807403E1,-1.0436281E-1,1.5034863E-1,2.3706857E-2,2.71359E10,3.827514E1,-9.346502E-2,2.2924668E4,-1.5733389E3,1.9277447E10,5.0880142E1,5.797175E0,8.813043E1,-9.174323E-2,8.87566E3,2.837803E-1,-3.1853926E-3,-8.502706E-3,6.848438E1,5.5279832E-2,2.5571474E-1,5.1068004E-2,-1.6613281E1,3.933137E10,4.500288E10,6.796518E1,4.069993E10,6.676611E-2,-2.2957365E-1,4.4679266E4,-1.4761168E-1,5.9859746E3,1.4177625E-1,6.644893E1,-3.3695232E-2,-2.8109717E-1,-5.509743E-2,-2.4665228E-1,9.9815356E2,2.1359988E-1,1.0327364E-2,7.653794E2,6.818443E1,-2.1219192E-1,1.0091239E-1,2.6482134E3,3.6875256E10,5.5239926E10,-1.2364169E-1,-9.0240643E2,1.0131947E-1,2.4581861E-1,5.9806056E-2,1.3001576E-1,-1.7065988E-1,2.2389474E0,2.72389E2,-4.7423813E-2,2.069917E-1,2.2621032E10,2.7127101E10,3.7322105E10,3.2541102E4,2.2759615E-1,7.1430247E-4,6.8234295E-2,6.9712407E3,-8.51709E1,2.0193264E10,4.0654492E3,3.0237528E10,6.0423573E1,1.0586629E4,1.3189742E-1,-1.2719055E-1,3.7701566E-2,-1.9510826E-1,2.0109795E-1,-1.2846108E-2,7.659094E-2,4.42407E3,-1.5287975E2,9.567336E3,-1.9619452E-2,-2.605581E-1,-1.0570653E-2,1.9751488E-1,-1.7142302E-1,8.711628E-3,-2.0226173E-1,1.7278963E-1,1.185E0,-8.869623E2,-2.9343745E3,2.873382E-2,-5.978772E-2,1.9227515E-1,-2.092989E-1,5.1546207E1,1.7653592E-1,-8.0433056E-2,4.800365E-2,2.676552E-1,-4.2331766E-2,6.9984406E1,1.8498325E-1,4.5883972E1,-1.1811663E1,-3.905931E-2,-2.0320235E-1,1.5986572E2,-6.738657E-2,7.014073E1,1.5091853E-1,-8.3227925E-2,-2.7396128E-1,-7.364675E-2],"split_indices":[263,94,278,188,0,114,293,23,219,130,98,248,218,0,0,168,0,41,99,64,234,0,106,128,214,0,293,0,0,0,49,128,0,138,204,259,113,284,293,0,234,0,0,0,8,0,0,0,204,124,244,23,109,0,0,17,0,144,0,8,0,0,0,0,159,0,0,204,129,0,0,114,259,64,0,219,0,0,0,0,0,85,279,0,0,4,64,64,212,0,0,0,20,24,19,146,274,263,22,0,0,0,0,0,0,0,71,189,256,0,0,0,0,0,0,0,0,295,99,24,0,0,0,0,8,0,0,0,0,0,38,0,278,219,0,0,219,0,68,0,0,0,0],"split_type":[0,0,0,0,0,0,0,0,0,0,0,0,0,0,0,0,0,0,0,0,0,0,0,0,0,0,0,0,0,0,0,0,0,0,0,0,0,0,0,0,0,0,0,0,0,0,0,0,0,0,0,0,0,0,0,0,0,0,0,0,0,0,0,0,0,0,0,0,0,0,0,0,0,0,0,0,0,0,0,0,0,0,0,0,0,0,0,0,0,0,0,0,0,0,0,0,0,0,0,0,0,0,0,0,0,0,0,0,0,0,0,0,0,0,0,0,0,0,0,0,0,0,0,0,0,0,0,0,0,0,0,0,0,0,0,0,0,0,0,0,0,0,0],"sum_hessian":[1.5893968E2,1.4699104E1,1.4424057E2,1.3322975E1,1.376129E0,6.65206E1,7.771998E1,2.5286145E0,1.0794361E1,1.5391586E1,5.112901E1,3.8682674E1,3.90373E1,1.32439E0,1.2042245E0,9.774794E0,1.0195669E0,3.0833182E0,1.2308268E1,6.225315E0,4.4903694E1,6.8801847E0,3.180249E1,3.0693613E1,8.343689E0,1.0282333E0,8.746561E0,1.9374553E0,1.145863E0,1.3877044E0,1.0920564E1,4.734731E0,1.4905841E0,1.0252327E1,3.4651367E1,2.7483377E1,4.319112E0,8.742186E0,2.1951427E1,1.306714E0,7.036975E0,7.6729164E0,1.0736444E0,1.2258053E0,9.694758E0,1.5980768E0,3.1366541E0,1.5586151E0,8.693711E0,3.4651186E0,3.1186249E1,2.4751232E0,2.5008255E1,1.4028244E0,2.9162877E0,6.9963317E0,1.7458535E0,1.992378E1,2.027647E0,5.676244E0,1.3607311E0,8.555381E0,1.1393776E0,6.4323063E0,2.261405E0,2.4615498E0,1.0035689E0,2.7434593E1,3.7516558E0,1.4381582E0,1.036965E0,1.7873617E1,7.134637E0,5.684618E0,1.3117136E0,1.8670397E1,1.2533835E0,4.2189007E0,1.4573433E0,1.1888345E0,1.0725706E0,2.0405088E1,7.0295043E0,1.308963E0,2.442693E0,1.4700225E1,3.1733928E0,3.563545E0,3.5710921E0,4.6183643E0,1.066254E0,1.4185294E0,1.7251867E1,1.3356212E1,7.0488777E0,4.3653E0,2.6642044E0,3.0527184E0,1.1647506E1,1.3047464E0,1.8686464E0,1.1980052E0,2.3655398E0,2.2714381E0,1.299654E0,1.0822498E0,1.6169619E1,4.438525E0,8.917686E0,1.1937276E0,5.85515E0,1.440185E0,2.925115E0,1.5036886E0,1.1605158E0,1.160454E0,1.8922645E0,2.325169E0,9.322337E0,1.50549965E1,1.1146214E0,1.7000821E0,2.738443E0,3.1412077E0,5.776479E0,1.1591535E0,1.1660157E0,1.9202583E0,7.4020786E0,1.3793408E0,1.3675655E1,1.4018466E0,4.374632E0,1.2596726E1,1.0789287E0,2.3088973E0,2.0657346E0,1.5253912E0,1.1071336E1,1.0334873E0,1.0322472E0,9.874149E0,1.1971861E0],"tree_param":{"num_deleted":"0","num_feature":"300","num_nodes":"143","size_leaf_vector":"0"}},{"base_weights":[-1.07236365E-2,2.1583468E-2,-1.0020136E0,2.3195425E-1,-1.1472127E-1,-1.1250819E0,-2.7966538E-1,7.066157E-1,8.1148885E-2,-9.6458954E-1,-5.868185E-2,-3.554377E-1,8.9437836E-1,-2.513566E-1,3.8065013E-1,-1.2930018E-2,-1.1808108E0,2.166315E-1,-2.6941156E-1,-4.610935E-2,1.0565053E0,7.3287565E-1,-4.5427135E-1,6.237971E-1,-3.5127228E-1,-5.000822E-1,3.4606177E-1,-3.4139916E-1,8.7492317E-1,1.1670275E0,8.522917E-3,1.0704446E-1,1.0213758E0,1.9708526E-1,-7.9209393E-1,9.5915127E-1,1.5478791E-3,-8.37643E-1,5.680413E-1,-8.576488E-1,5.308495E-1,1.5275976E-1,1.0380006E0,6.298523E-1,-4.0559155E-1,3.3237833E-1,1.2646815E0,-5.3129685E-1,5.357836E-1,1.0078698E-1,-9.775632E-1,1.0641844E0,-1.02401465E-1,-4.4398502E-1,9.0580964E-1,-2.5132028E-2,-1.1482662E0,1.1667166E-1,-1.1703153E0,-2.0781693E-1,4.3158618E-1,1.1957173E0,6.44863E-2,8.803708E-1,2.5438776E-2,-1.2916422E0,-2.9929987E-1,8.554591E-1,-2.5165036E-1,-6.7478305E-1,8.201647E-1,-1.1700485E0,2.0725426E-1,1.1878072E0,4.985382E-2,4.4520178E-1,-7.9367685E-1,7.14755E-1,-4.3902445E-1,9.8373777E-1,-1.02490485E-2,4.2086273E-1,-4.7121787E-1,9.636428E-1,2.6561752E-1,-1.3752862E0,-2.9988158E-1,4.0542617E-1,1.2979451E0,-1.0422015E0,-1.7815657E-2,-8.681478E-1,1.7298654E-1,1.2492324E0,4.8423134E-2,-5.8803463E-1,4.5719776E-1,-3.5566333E-1,7.2473985E-1,-9.753273E-1,-2.0763175E-1,-7.2733915E-1,2.6705128E-1,-1.0704343E0,-1.0422754E-1,7.3892057E-1,-4.7790262E-1,2.0927846E-1,-9.594787E-1,8.1824416E-1,-6.4456654E-1,3.3453012E-1,-8.525617E-1,9.6278423E-1,-1.8235338E-1,-1.0666509E0,-3.946276E-2,1.9880208E-1,-6.2917244E-1,9.056439E-1,1.9255778E-1,1.0935739E0,-1.1016729E-1,1.9460994E-1,1.0989702E0,-1.2089884E0,-3.2711574E-1,-1.4915234E-1,8.276486E-1,-8.2497144E-1,5.9491426E-1,-1.3037168E0,-2.9161972E-1,-9.0853825E-2,-3.9898652E-1,4.3246084E-1,-6.824688E-1,5.3935986E-2,1.0470043E0,-1.0829723E0,2.8477743E-1,1.1116335E0,-7.115504E-1,8.264399E-2,-9.986368E-1,-5.206129E-2,-1.2375814E0,-3.4502777E-1,-1.32084E0],"categories":[],"categories_nodes":[],"categories_segments":[],"categories_sizes":[],"default_left":[1,1,1,1,1,0,0,1,1,1,1,0,1,1,1,0,0,1,1,0,1,1,1,1,1,1,1,1,0,1,0,0,0,1,1,1,1,1,0,1,0,1,1,1,1,0,0,0,1,1,1,1,0,1,0,0,0,0,0,1,1,0,0,0,0,0,1,1,0,0,0,1,0,1,0,0,1,0,1,1,1,1,1,0,0,0,1,0,0,0,0,1,1,0,0,1,1,1,1,1,1,0,0,0,0,1,0,0,0,1,0,0,0,1,0,1,0,1,1,0,0,0,0,0,0,1,1,1,1,1,0,0,0,0,0,1,1,0,0,1,0,0,0,0,0,0,1,0,0],"id":8,"left_children":[1,3,5,7,9,-1,-1,11,13,15,17,-1,19,21,23,-1,-1,25,27,-1,29,31,33,35,37,39,41,43,-1,45,-1,-1,-1,47,49,51,53,55,-1,57,-1,59,61,63,65,-1,-1,-1,67,69,71,73,-1,75,-1,-1,-1,-1,-1,77,79,-1,-1,-1,-1,-1,81,83,-1,-1,-1,85,-1,87,-1,-1,89,-1,91,93,95,97,99,-1,-1,-1,101,-1,-1,-1,-1,103,105,-1,-1,107,109,111,113,115,117,-1,-1,-1,-1,119,-1,-1,-1,121,-1,-1,-1,123,-1,125,-1,127,129,-1,-1,-1,-1,-1,-1,131,133,135,137,139,-1,-1,-1,-1,-1,141,143,-1,-1,145,-1,-1,-1,-1,-1,-1,147,-1,-1],"loss_changes":[4.9147277E0,4.297489E0,1.1592245E-1,4.158232E0,4.2798185E0,0E0,0E0,3.1235733E0,4.6589336E0,1.1303835E0,5.0758615E0,0E0,1.9150944E0,4.7899714E0,4.580207E0,0E0,0E0,3.7027755E0,4.3709154E0,0E0,1.2041702E0,6.4848614E-1,4.363284E0,3.9121609E0,3.4941425E0,2.7515864E0,4.2313433E0,3.1999211E0,0E0,3.5191822E-1,0E0,0E0,0E0,2.0931103E0,2.2164545E0,1.4676085E0,3.4517908E0,1.1873598E0,0E0,1.6620085E0,0E0,2.7868032E0,9.9678755E-1,4.802395E-1,3.8427863E0,0E0,0E0,0E0,1.6001718E0,2.286473E0,2.6788769E0,1.3421822E0,0E0,2.1388135E0,0E0,0E0,0E0,0E0,0E0,2.9531076E0,3.780076E0,0E0,0E0,0E0,0E0,0E0,5.3238754E0,8.241892E-3,0E0,0E0,0E0,1.2557125E0,0E0,3.2841206E-1,0E0,0E0,8.45402E-1,0E0,2.911282E0,1.6478181E0,2.8546019E0,2.265018E0,4.300995E0,0E0,0E0,0E0,9.361518E-1,0E0,0E0,0E0,0E0,8.6911917E-1,2.256497E0,0E0,0E0,1.5983721E0,2.8564055E0,1.3358026E0,1.5668144E0,9.293566E-1,4.155761E0,0E0,0E0,0E0,0E0,1.13158464E-1,0E0,0E0,0E0,1.3603361E0,0E0,0E0,0E0,3.3671427E-1,0E0,6.905756E-1,0E0,2.9105463E0,3.3161979E0,0E0,0E0,0E0,0E0,0E0,0E0,3.394575E-1,1.5306383E-2,3.1015296E0,7.395148E-1,3.338172E0,0E0,0E0,0E0,0E0,0E0,4.629199E0,1.3180792E0,0E0,0E0,1.3372316E0,0E0,0E0,0E0,0E0,0E0,0E0,1.0929203E-1,0E0,0E0],"parents":[2147483647,0,0,1,1,2,2,3,3,4,4,7,7,8,8,9,9,10,10,12,12,13,13,14,14,17,17,18,18,20,20,21,21,22,22,23,23,24,24,25,25,26,26,27,27,29,29,33,33,34,34,35,35,36,36,37,37,39,39,41,41,42,42,43,43,44,44,48,48,49,49,50,50,51,51,53,53,59,59,60,60,66,66,67,67,71,71,73,73,76,76,78,78,79,79,80,80,81,81,82,82,86,86,91,91,92,92,95,95,96,96,97,97,98,98,99,99,100,100,105,105,109,109,113,113,115,115,117,117,118,118,125,125,126,126,127,127,128,128,129,129,135,135,136,136,139,139,146,146],"right_children":[2,4,6,8,10,-1,-1,12,14,16,18,-1,20,22,24,-1,-1,26,28,-1,30,32,34,36,38,40,42,44,-1,46,-1,-1,-1,48,50,52,54,56,-1,58,-1,60,62,64,66,-1,-1,-1,68,70,72,74,-1,76,-1,-1,-1,-1,-1,78,80,-1,-1,-1,-1,-1,82,84,-1,-1,-1,86,-1,88,-1,-1,90,-1,92,94,96,98,100,-1,-1,-1,102,-1,-1,-1,-1,104,106,-1,-1,108,110,112,114,116,118,-1,-1,-1,-1,120,-1,-1,-1,122,-1,-1,-1,124,-1,126,-1,128,130,-1,-1,-1,-1,-1,-1,132,134,136,138,140,-1,-1,-1,-1,-1,142,144,-1,-1,146,-1,-1,-1,-1,-1,-1,148,-1,-1],"split_conditions":[1.60715E2,2.5475001E0,2.494434E0,3.0749078E10,-5.1451914E3,-2.2501639E-1,-5.5933077E-2,-4.3828412E2,3.94592E10,3.3605145E1,4.9008793E1,-7.108754E-2,8.197E1,-2.0656914E3,5.3056865E3,-2.5860036E-3,-2.3616217E-1,2.7154999E0,4.4655605E3,-9.2218695E-3,1.36E2,3.4348827E10,3.4408067E10,2.47405E0,2.4945264E0,4.1307906E10,5.236824E1,1.4625235E10,1.7498463E-1,3.3379084E3,1.7045833E-3,2.1408891E-2,2.0427516E-1,4.7191067E1,2.30695E0,5.3292145E4,5.613154E4,6.668656E10,1.1360826E-1,1.8679984E10,1.061699E-1,4.1294533E1,5.205813E1,-1.7088126E2,3.6504967E1,6.647567E-2,2.529363E-1,-1.0625937E-1,3.7870207E10,4.409607E4,7.225157E1,6.7831436E3,-2.0480294E-2,3.5153234E4,1.8116193E-1,-5.0264057E-3,-2.2965324E-1,2.3334332E-2,-2.3406306E-1,-4.3275625E3,-1.8394824E2,2.3914348E-1,1.28972605E-2,1.7607416E-1,5.087755E-3,-2.5832844E-1,5.0078968E1,3.4584637E10,-5.0330073E-2,-1.3495661E-1,1.6403294E-1,2.0023438E3,4.1450854E-2,3.783756E10,9.970765E-3,8.904036E-2,6.9017534E10,1.42951E-1,-4.5575293E2,4.079847E10,4.9786034E1,-4.9703406E2,4.773607E1,1.9272856E-1,5.3123504E-2,-2.7505726E-1,3.4298065E10,8.1085235E-2,2.5958905E-1,-2.084403E-1,-3.5631314E-3,5.3128128E1,4.0793682E1,2.4984649E-1,9.684627E-3,4.4159153E1,7.2667206E1,3.1422624E10,6.807692E1,2.51E0,7.767914E2,-1.4546783E-1,5.341026E-2,-2.1408688E-1,-2.0845508E-2,-6.070244E2,-9.5580526E-2,4.1855693E-2,-1.9189574E-1,6.693797E1,-1.2891331E-1,6.690603E-2,-1.7051235E-1,9.44691E3,-3.6470678E-2,7.009053E1,-7.892552E-3,6.303004E1,8.448477E1,1.8112879E-1,3.8511556E-2,2.1871479E-1,-2.2033459E-2,3.892199E-2,2.1979403E-1,2.0888389E3,2.072292E3,5.875019E1,5.9415634E1,7.453296E1,1.1898285E-1,-2.6074335E-1,-5.8323946E-2,-1.8170765E-2,-7.9797305E-2,5.687675E0,1.8852783E1,1.0787197E-2,2.0940088E-1,4.7298273E2,5.6955487E-2,2.2232671E-1,-1.4231008E-1,1.6528798E-2,-1.9972736E-1,-1.0412258E-2,5.5857307E1,-6.900556E-2,-2.64168E-1],"split_indices":[103,29,55,19,174,0,0,174,184,38,128,0,223,39,129,0,0,59,56,0,163,169,289,59,299,4,68,259,0,281,0,0,0,23,74,125,170,259,0,199,0,218,113,99,98,0,0,0,199,2,158,9,0,77,0,0,0,0,0,264,219,0,0,0,0,0,113,184,0,0,0,249,0,4,0,0,4,0,279,109,278,219,263,0,0,0,124,0,0,0,0,23,188,0,0,293,248,49,218,235,219,0,0,0,0,174,0,0,0,293,0,0,0,5,0,38,0,188,278,0,0,0,0,0,0,144,39,158,128,23,0,0,0,0,0,44,189,0,0,189,0,0,0,0,0,0,128,0,0],"split_type":[0,0,0,0,0,0,0,0,0,0,0,0,0,0,0,0,0,0,0,0,0,0,0,0,0,0,0,0,0,0,0,0,0,0,0,0,0,0,0,0,0,0,0,0,0,0,0,0,0,0,0,0,0,0,0,0,0,0,0,0,0,0,0,0,0,0,0,0,0,0,0,0,0,0,0,0,0,0,0,0,0,0,0,0,0,0,0,0,0,0,0,0,0,0,0,0,0,0,0,0,0,0,0,0,0,0,0,0,0,0,0,0,0,0,0,0,0,0,0,0,0,0,0,0,0,0,0,0,0,0,0,0,0,0,0,0,0,0,0,0,0,0,0,0,0,0,0,0,0],"sum_hessian":[1.5178667E2,1.4794328E2,3.8433886E0,5.789195E1,9.005134E1,2.8075287E0,1.0358598E0,1.3069608E1,4.4822342E1,4.567656E0,8.548368E1,1.8293167E0,1.1240291E1,2.1317007E1,2.3505333E1,1.0418665E0,3.5257895E0,3.7050316E1,4.8433365E1,1.7579772E0,9.482313E0,3.1972237E0,1.8119783E1,1.7754845E1,5.7504883E0,5.2293468E0,3.182097E1,4.6226986E1,2.2063773E0,8.4749365E0,1.0073773E0,1.4414296E0,1.755794E0,6.330511E0,1.1789272E1,1.1185254E1,6.569592E0,3.8189034E0,1.9315847E0,4.007482E0,1.2218646E0,2.5826715E1,5.9942546E0,2.3195474E0,4.390744E1,1.3489637E0,7.1259727E0,1.8288546E0,4.5016565E0,2.1062078E0,9.683064E0,1.0175937E1,1.0093164E0,4.742134E0,1.8274575E0,1.3551321E0,2.4637713E0,1.1258856E0,2.8815966E0,1.1373388E1,1.4453327E1,4.962106E0,1.0321481E0,1.3170737E0,1.0024738E0,3.5085127E0,4.0398926E1,3.140369E0,1.3612876E0,1.0433499E0,1.0628579E0,8.3405285E0,1.3425361E0,8.918017E0,1.2579199E0,1.2614439E0,3.4806905E0,1.8600311E0,9.513357E0,5.879441E0,8.573886E0,7.5064497E0,3.2892475E1,2.118145E0,1.0222238E0,6.279062E0,2.061467E0,1.6781445E0,7.239873E0,2.3762457E0,1.1044447E0,5.346229E0,4.1671286E0,4.3180957E0,1.5613453E0,3.7190275E0,4.854859E0,2.063352E0,5.4430976E0,1.0366426E1,2.252605E1,1.0139952E0,1.0474718E0,3.9096994E0,1.4365296E0,2.1566875E0,2.0104408E0,1.3206987E0,2.3983288E0,3.8504164E0,1.0044425E0,1.0004656E0,1.0628865E0,4.2629867E0,1.1801113E0,9.31746E0,1.0489664E0,1.1737541E1,1.0788509E1,1.1486027E0,1.0080849E0,2.8325093E0,1.0179071E0,1.0077342E0,3.2552524E0,7.28125E0,2.0362098E0,8.047501E0,3.6900408E0,9.581888E0,1.2066212E0,6.2180233E0,1.0632265E0,1.0030372E0,1.0331726E0,3.9399078E0,4.107593E0,1.090281E0,2.5997598E0,7.7940183E0,1.7878698E0,2.4899716E0,1.449936E0,1.4170358E0,2.6905572E0,1.1907828E0,6.6032352E0,1.0023065E0,5.600929E0],"tree_param":{"num_deleted":"0","num_feature":"300","num_nodes":"149","size_leaf_vector":"0"}},{"base_weights":[-4.1275945E-2,-3.5866675E-1,7.5469345E-2,2.6126045E-1,-5.992559E-1,6.393614E-1,5.473635E-3,7.18627E-1,-4.0379182E-1,-9.5443916E-1,-1.1802131E-1,8.243856E-1,-5.160694E-1,5.2945805E-1,-8.354099E-2,-2.487301E-1,9.5902145E-1,-8.0048585E-1,3.423984E-1,-1.0937333E0,1.15853004E-1,7.642769E-1,-4.0284547E-1,1.9173011E-1,1.0291517E0,9.5514804E-1,-3.648381E-1,-3.7201223E-1,1.1893382E-1,1.8199767E-1,1.2543169E0,6.479519E-2,-1.1968545E0,9.5429045E-1,1.6005278E-1,-8.722701E-1,4.3421127E-3,-4.4954625E-1,8.0805635E-1,1.1098932E0,2.953182E-1,1.1152086E0,-3.433602E-2,-7.3931915E-1,5.562245E-1,5.4567134E-1,-5.0774515E-1,3.5190693E-1,-3.116433E-1,-1.3162161E0,-9.693611E-2,-1.0114707E0,-2.0095481E-1,5.6266564E-1,-7.6969427E-1,4.3624187E-1,1.2397281E0,-9.961681E-1,-4.1004375E-2,9.363827E-1,-4.1692513E-1,-2.0789726E-1,-1.0610292E0,-3.8182032E-1,4.955141E-1,9.9439956E-2,-8.454577E-1,-4.1790697E-1,-1.3744429E0,-1.4638413E-1,8.725636E-1,-4.731138E-1,4.9956888E-1,-1.2620343E0,1.6864918E-1,3.411706E-1,-7.446651E-1,7.399709E-1,-1.2909664E-1,-6.677144E-1,4.0743768E-1,1.09246306E-1,-1.0599914E0,-6.322703E-1,5.9303814E-1,8.2947344E-1,-4.6040294E-1,-2.1571526E-1,-1.3897403E0,-1.5844686E-2,-1.0118495E0,8.41076E-1,-4.6232346E-1,8.6773795E-1,-5.917283E-1,2.0648664E-2,-1.057815E0,9.3094397E-1,-3.1938183E-1,-1.1526833E0,-3.0348656E-1,5.17955E-1,-8.1211734E-1,9.216266E-2,1.0110967E0,-1.9509783E-1,9.169352E-1,2.0955539E-1,-1.0673727E0,8.19213E-2,1.1801224E0,3.9117995E-1,-8.264508E-1,2.0612663E-1,-9.4276375E-1,1.0351331E0,1.5729791E-1,8.0111897E-1,-5.139553E-1,5.964371E-2,-1.0716163E0,4.035969E-1,1.255832E0,-7.466678E-1,8.47247E-1,-1.2520722E0,-3.0172658E-1,-4.9396962E-1,8.455252E-1,3.5040283E-1,1.3195152E0,2.671909E-1,-7.132242E-1,9.8424065E-1,2.590188E-1],"categories":[],"categories_nodes":[],"categories_segments":[],"categories_sizes":[],"default_left":[1,1,1,1,1,1,1,1,1,1,1,1,0,1,1,0,1,0,0,1,0,1,1,1,1,1,1,1,1,0,0,0,1,0,0,1,1,0,0,0,0,1,0,1,0,1,1,1,1,1,0,0,0,1,0,0,0,0,0,0,0,1,1,1,1,1,1,0,0,0,0,1,1,1,0,0,1,1,1,1,1,0,1,1,0,1,0,0,0,0,0,1,0,0,1,0,0,1,1,0,0,0,1,0,0,0,1,1,0,0,0,0,0,0,1,1,1,0,0,0,1,1,1,0,0,0,1,0,1,0,0,0,0,0,0],"id":9,"left_children":[1,3,5,7,9,11,13,15,17,19,21,23,-1,25,27,-1,29,-1,-1,31,-1,33,35,37,39,41,43,45,47,-1,-1,-1,49,-1,-1,51,53,-1,-1,-1,-1,55,-1,57,-1,59,61,63,65,67,-1,-1,-1,69,-1,-1,-1,-1,-1,-1,-1,71,73,75,77,79,81,-1,-1,-1,-1,83,85,87,-1,-1,89,91,93,95,97,-1,99,101,-1,103,-1,-1,-1,-1,-1,105,-1,-1,107,-1,-1,109,111,-1,-1,-1,113,-1,-1,-1,115,117,-1,-1,-1,-1,-1,-1,119,121,123,-1,-1,-1,125,127,129,-1,-1,-1,131,-1,133,-1,-1,-1,-1,-1,-1],"loss_changes":[5.0288916E0,5.596573E0,3.924316E0,3.6038432E0,4.4305696E0,2.7727675E0,4.2202964E0,1.8232665E0,1.7776291E0,2.3856106E0,3.4310946E0,1.0786343E0,0E0,5.349886E0,4.5648174E0,0E0,1.0713754E0,0E0,0E0,1.6906929E0,0E0,2.3511004E-1,1.9247985E0,1.8008584E0,9.954977E-2,1.4917545E0,2.1221857E0,4.283137E0,4.747578E0,0E0,0E0,0E0,1.5069942E0,0E0,0E0,2.3344159E-1,3.1889176E0,0E0,0E0,0E0,0E0,1.2955475E-1,0E0,6.686969E-1,0E0,2.1302495E0,4.51353E0,3.3998942E0,3.7626443E0,8.924484E-3,0E0,0E0,0E0,1.0686995E0,0E0,0E0,0E0,0E0,0E0,0E0,0E0,3.9420934E0,2.63159E0,1.7106607E0,4.053056E0,2.7211325E0,1.6310725E0,0E0,0E0,0E0,0E0,2.8996212E0,2.2414083E0,8.398323E-1,0E0,0E0,7.650778E-1,2.671301E0,4.2682953E0,9.20946E-1,3.3476942E0,0E0,8.0317974E-2,3.1988182E0,0E0,5.3978753E-1,0E0,0E0,0E0,0E0,0E0,1.5681915E0,0E0,0E0,2.5697565E0,0E0,0E0,9.432721E-1,1.8009629E0,0E0,0E0,0E0,1.7911401E0,0E0,0E0,0E0,1.3316479E0,1.7508821E0,0E0,0E0,0E0,0E0,0E0,0E0,1.4611788E0,1.4757147E0,2.7658377E0,0E0,0E0,0E0,9.6129036E-1,2.4632983E0,1.18112564E-1,0E0,0E0,0E0,9.274633E-1,0E0,5.621195E-2,0E0,0E0,0E0,0E0,0E0,0E0],"parents":[2147483647,0,0,1,1,2,2,3,3,4,4,5,5,6,6,7,7,8,8,9,9,10,10,11,11,13,13,14,14,16,16,19,19,21,21,22,22,23,23,24,24,25,25,26,26,27,27,28,28,32,32,35,35,36,36,41,41,43,43,45,45,46,46,47,47,48,48,49,49,53,53,61,61,62,62,63,63,64,64,65,65,66,66,71,71,72,72,73,73,76,76,77,77,78,78,79,79,80,80,82,82,83,83,85,85,91,91,94,94,97,97,98,98,102,102,106,106,107,107,114,114,115,115,116,116,120,120,121,121,122,122,126,126,128,128],"right_children":[2,4,6,8,10,12,14,16,18,20,22,24,-1,26,28,-1,30,-1,-1,32,-1,34,36,38,40,42,44,46,48,-1,-1,-1,50,-1,-1,52,54,-1,-1,-1,-1,56,-1,58,-1,60,62,64,66,68,-1,-1,-1,70,-1,-1,-1,-1,-1,-1,-1,72,74,76,78,80,82,-1,-1,-1,-1,84,86,88,-1,-1,90,92,94,96,98,-1,100,102,-1,104,-1,-1,-1,-1,-1,106,-1,-1,108,-1,-1,110,112,-1,-1,-1,114,-1,-1,-1,116,118,-1,-1,-1,-1,-1,-1,120,122,124,-1,-1,-1,126,128,130,-1,-1,-1,132,-1,134,-1,-1,-1,-1,-1,-1],"split_conditions":[4.0203598E1,3.1155163E1,4.1126644E1,2.503684E0,3.460573E10,6.15098E2,4.026647E1,9.848309E1,4.594E0,4.6455703E4,3.5018334E10,3.9093468E1,-1.03213884E-1,2.4189475E0,5.5395653E1,-4.9746018E-2,2.2334164E1,-1.6009717E-1,6.847968E-2,9.642293E3,2.3170602E-2,4.0449364E1,4.066315E10,3.9949585E1,7.5956494E2,1.6190479E3,4.9899166E1,-3.6463079E3,2.3102234E3,3.6399536E-2,2.508634E-1,1.2959038E-2,8.073301E2,1.908581E-1,3.2010555E-2,1.55685E2,6.457786E10,-8.990925E-2,1.6161127E-1,2.2197865E-1,5.906364E-2,3.1992542E1,-6.867204E-3,-8.532573E2,1.1124491E-1,2.4195237E0,3.670258E10,4.8494682E1,2.4959998E0,2.7174282E1,-1.9387221E-2,-2.0229414E-1,-4.019096E-2,4.4237697E10,-1.5393886E-1,8.724838E-2,2.4794562E-1,-1.9923362E-1,-8.2008755E-3,1.8727654E-1,-8.338503E-2,4.14691E3,6.652078E1,-5.736743E2,3.9857357E10,3.3464594E10,2.5121464E10,-8.3581395E-2,-2.748886E-1,-2.9276827E-2,1.7451273E-1,5.9398093E0,5.8907814E1,3.3779495E1,3.3729836E-2,6.823412E-2,2.5189736E10,3.9653438E3,5.3052113E1,4.00307E3,4.1574576E10,2.1849262E-2,8.0225975E1,2.470579E0,1.1860763E-1,-9.591201E2,-9.2080586E-2,-4.3143053E-2,-2.7794808E-1,-3.1689373E-3,-2.0236991E-1,1.6230709E10,-9.246469E-2,1.735476E-1,5.930599E1,4.129733E-3,-2.1156299E-1,3.628274E10,6.833775E1,-2.3053665E-1,-6.0697313E-2,1.03591E-1,1.5886947E10,1.8432533E-2,2.0221935E-1,-3.9019566E-2,1.52875E2,6.1223987E2,-2.1347454E-1,1.638426E-2,2.3602448E-1,7.823599E-2,-1.6529016E-1,4.1225325E-2,1.22825E0,2.467125E0,1.54018E2,1.602238E-1,-1.0279106E-1,1.1928742E-2,1.49024E2,7.744121E2,2.4694736E0,-1.4933357E-1,1.694494E-1,-2.5041446E-1,2.4672499E0,-9.8793924E-2,1.817293E3,7.008057E-2,2.6390305E-1,5.3438183E-2,-1.4264484E-1,1.9684814E-1,5.1803764E-2],"split_indices":[233,203,248,145,259,294,173,283,134,183,169,158,0,175,143,0,188,0,0,46,0,293,64,263,189,54,218,99,129,0,0,0,189,0,0,58,109,0,0,0,0,113,0,24,0,265,244,278,209,158,0,0,0,109,0,0,0,0,0,0,0,296,188,279,79,64,124,0,0,0,0,134,158,83,0,0,64,144,38,99,4,0,173,209,0,99,0,0,0,0,0,34,0,0,158,0,0,259,8,0,0,0,274,0,0,0,148,189,0,0,0,0,0,0,10,119,28,0,0,0,133,114,164,0,0,0,100,0,129,0,0,0,0,0,0],"split_type":[0,0,0,0,0,0,0,0,0,0,0,0,0,0,0,0,0,0,0,0,0,0,0,0,0,0,0,0,0,0,0,0,0,0,0,0,0,0,0,0,0,0,0,0,0,0,0,0,0,0,0,0,0,0,0,0,0,0,0,0,0,0,0,0,0,0,0,0,0,0,0,0,0,0,0,0,0,0,0,0,0,0,0,0,0,0,0,0,0,0,0,0,0,0,0,0,0,0,0,0,0,0,0,0,0,0,0,0,0,0,0,0,0,0,0,0,0,0,0,0,0,0,0,0,0,0,0,0,0,0,0,0,0,0,0],"sum_hessian":[1.3398784E2,3.5473965E1,9.851388E1,9.894036E0,2.5579927E1,9.979975E0,8.8533905E1,5.814654E0,4.0793824E0,1.4151709E1,1.1428218E1,8.849395E0,1.1305798E0,1.2137652E1,7.6396255E1,1.1504644E0,4.66419E0,2.6159253E0,1.4634573E0,1.250264E1,1.6490693E0,2.3781395E0,9.050078E0,2.6373246E0,6.21207E0,8.17721E0,3.9604425E0,3.1161837E1,4.5234417E1,1.7295289E0,2.9346607E0,1.0522825E0,1.1450357E1,1.3684354E0,1.009704E0,3.6732285E0,5.37685E0,1.4251182E0,1.2122064E0,5.13466E0,1.07741E0,6.9292603E0,1.2479496E0,2.9559474E0,1.004495E0,3.6260579E0,2.7535778E1,2.947113E1,1.5763288E1,1.0152024E1,1.2983333E0,2.6226988E0,1.0505297E0,3.2823324E0,2.0945175E0,1.7717655E0,5.157495E0,1.8492417E0,1.1067057E0,2.5985546E0,1.0275033E0,1.8750074E1,8.785704E0,4.552486E0,2.4918646E1,9.365082E0,6.3982058E0,1.115748E0,9.036276E0,1.1587462E0,2.1235862E0,1.3878519E1,4.8715553E0,7.5287323E0,1.2569706E0,1.5412275E0,3.0112584E0,1.777663E1,7.142014E0,2.3482325E0,7.0168495E0,1.2640015E0,5.134204E0,1.2429926E1,1.4485937E0,3.7267556E0,1.1447997E0,1.1114635E0,6.4172688E0,1.0919528E0,1.9193056E0,1.6674828E1,1.1018033E0,1.9863532E0,5.1556606E0,1.191972E0,1.1562605E0,3.9156663E0,3.1011832E0,4.1072598E0,1.0269444E0,1.4265226E0,1.1003403E1,1.0345151E0,2.6922405E0,1.0302753E0,1.5644552E1,2.12882E0,3.026841E0,1.1899451E0,2.7257211E0,1.3866295E0,1.7145537E0,1.1855569E0,9.817846E0,1.3224225E1,2.420328E0,1.1121925E0,1.0166274E0,1.1794492E0,8.638397E0,4.1571484E0,9.067077E0,1.0120894E0,1.4082384E0,6.4907236E0,2.1476734E0,1.3326817E0,2.8244667E0,1.023108E0,8.043968E0,1.0486059E0,1.0990673E0,1.7357911E0,1.0886755E0],"tree_param":{"num_deleted":"0","num_feature":"300","num_nodes":"135","size_leaf_vector":"0"}},{"base_weights":[8.999028E-2,4.667756E-3,5.4064375E-1,3.531946E-1,-7.997669E-2,6.5288275E-1,-6.456659E-1,-2.6185387E-1,8.344802E-1,-2.7409032E-1,9.770906E-2,-9.196003E-2,8.5783094E-1,4.069477E-1,-7.8442514E-1,3.3130386E-1,1.1489815E0,-8.3730444E-2,-9.208749E-1,2.012582E-1,-7.143339E-1,5.749515E-1,-6.853978E-1,-1.7331408E-1,9.515374E-1,-3.1410816E-1,9.108299E-1,-9.9736863E-1,-3.2416657E-2,8.1212854E-1,-2.1447341E-1,1.3296591E0,5.788634E-2,-2.5283623E-1,5.683748E-1,-1.1684086E0,-2.4827081E-1,-2.4140614E-1,3.715207E-1,-1.0892287E0,3.4318405E-1,1.036921E-1,7.6815796E-1,-1.4176172E-1,-8.6644936E-1,1.0141565E0,8.017083E-2,1.0606508E0,2.8068447E-1,2.325187E-1,9.45448E-1,4.432139E-1,-8.1038654E-1,3.3162832E-2,-7.5244135E-1,-1.1978943E-1,9.493249E-1,-3.2316396E-1,-1.310942E0,-8.005758E-1,4.218715E-1,3.8764554E-1,-7.764914E-1,5.657215E-1,-1.7140265E-1,6.6452E-2,1.0846643E0,7.7450556E-1,-2.0009938E-1,-9.0785325E-1,2.3860537E-2,5.744072E-1,-6.096674E-1,1.0693349E0,2.2687525E-1,8.531374E-1,-1.2606199E-1,-1.1702456E0,-7.6047055E-2,1.4978091E-1,9.9931884E-1,4.628571E-1,-7.7711767E-1,1.2550473E-1,1.1610365E0,-1.6311432E-1,1.1551311E0,4.7620934E-1,-6.4735264E-1,1.5199326E-1,-1.0588118E0,-5.3616E-1,3.3191785E-1,4.3834308E-1,-6.1264145E-1,3.9729536E-1,-6.329214E-1,1.1203239E0,1.9658113E-2,8.789656E-1,-6.0876834E-1,1.1382349E-1,-1.0712366E0,4.197866E-1,1.3349093E0,1.2004119E0,-3.9480138E-1,3.9958927E-1,-1.0484829E0,-1.6399707E-1,-1.1653725E0,5.973362E-1,-5.870352E-1,1.2469517E-2,-9.41403E-1,1.1839056E0,3.4252447E-1,1.9855814E-1,1.0704497E0,-2.9670727E-1,8.6190826E-1,3.5281697E-1,-8.450968E-1,8.1356466E-1,-2.951664E-1,-1.1907743E0,-1.6091473E-1,-3.568539E-1,-1.2524079E0,-5.088602E-2,8.9123553E-1,-6.301315E-1,4.559545E-1,-1.24836296E-1,1.1559219E0],"categories":[],"categories_nodes":[],"categories_segments":[],"categories_sizes":[],"default_left":[1,1,1,1,1,1,0,1,1,1,1,1,1,1,1,1,1,1,1,1,1,1,1,0,1,0,1,0,0,1,1,0,0,1,1,1,1,1,1,0,0,0,0,0,0,1,0,0,0,0,0,0,0,1,1,1,1,0,0,0,0,1,1,1,1,0,1,1,1,1,0,0,0,0,0,0,1,0,1,1,1,1,1,0,1,0,0,1,1,0,1,0,0,0,0,1,1,1,0,1,0,0,0,1,0,0,1,1,1,0,1,1,0,0,0,0,0,0,0,0,0,0,0,0,0,0,0,0,0,1,1,0,0,0,0],"id":10,"left_children":[1,3,5,7,9,11,-1,13,15,17,19,21,23,25,27,29,31,33,35,37,39,41,43,-1,45,-1,47,-1,-1,49,51,-1,-1,53,55,57,59,61,63,-1,-1,-1,-1,-1,-1,65,-1,-1,-1,-1,-1,-1,-1,67,69,71,73,-1,-1,-1,-1,75,77,79,81,-1,83,85,87,89,-1,-1,-1,-1,-1,-1,91,-1,93,95,97,99,101,-1,103,-1,-1,105,107,-1,109,-1,-1,-1,-1,111,113,115,-1,117,-1,-1,-1,119,-1,-1,121,123,125,-1,127,129,-1,-1,-1,-1,-1,-1,-1,-1,-1,-1,-1,-1,-1,-1,-1,-1,-1,131,133,-1,-1,-1,-1],"loss_changes":[5.3627357E0,3.519123E0,3.3780198E0,7.1178064E0,3.338766E0,3.251359E0,0E0,4.161222E0,1.7263308E0,5.6053843E0,4.4212875E0,2.526319E0,1.749033E0,2.2772267E0,1.0105834E0,1.8868182E0,1.458353E0,4.197241E0,1.440587E0,3.5489464E0,2.741864E0,2.0083523E-1,2.026676E-1,0E0,7.4713326E-1,0E0,3.1058073E-2,0E0,0E0,6.441498E-2,1.8672024E0,0E0,0E0,4.294579E0,2.1787975E0,4.5927525E-1,1.8427465E0,4.7965293E0,3.6334758E0,0E0,0E0,0E0,0E0,0E0,0E0,8.6869335E-1,0E0,0E0,0E0,0E0,0E0,0E0,0E0,3.6067364E0,1.3391781E0,1.6066984E0,2.0672035E-1,0E0,0E0,0E0,0E0,1.7350212E0,1.9933009E0,4.3478055E0,4.0494747E0,0E0,8.094225E-1,1.9666641E0,5.1413302E0,1.6207905E0,0E0,0E0,0E0,0E0,0E0,0E0,9.4925845E-1,0E0,1.3136626E0,2.9451141E0,1.4044456E0,2.9065895E0,1.5070817E0,0E0,9.805546E-1,0E0,0E0,4.849381E0,4.636007E0,0E0,5.8242035E-1,0E0,0E0,0E0,0E0,2.551674E0,7.5358975E-1,1.2326813E-1,0E0,3.3987284E-1,0E0,0E0,0E0,1.4374285E0,0E0,0E0,1.611625E0,1.2484055E0,7.601185E-1,0E0,5.1670074E-2,1.9096401E0,0E0,0E0,0E0,0E0,0E0,0E0,0E0,0E0,0E0,0E0,0E0,0E0,0E0,0E0,0E0,0E0,0E0,1.4612626E0,1.9695988E0,0E0,0E0,0E0,0E0],"parents":[2147483647,0,0,1,1,2,2,3,3,4,4,5,5,7,7,8,8,9,9,10,10,11,11,12,12,13,13,14,14,15,15,16,16,17,17,18,18,19,19,20,20,21,21,22,22,24,24,26,26,29,29,30,30,33,33,34,34,35,35,36,36,37,37,38,38,45,45,53,53,54,54,55,55,56,56,61,61,62,62,63,63,64,64,66,66,67,67,68,68,69,69,76,76,78,78,79,79,80,80,81,81,82,82,84,84,87,87,88,88,90,90,95,95,96,96,97,97,99,99,103,103,106,106,107,107,108,108,110,110,111,111,129,129,130,130],"right_children":[2,4,6,8,10,12,-1,14,16,18,20,22,24,26,28,30,32,34,36,38,40,42,44,-1,46,-1,48,-1,-1,50,52,-1,-1,54,56,58,60,62,64,-1,-1,-1,-1,-1,-1,66,-1,-1,-1,-1,-1,-1,-1,68,70,72,74,-1,-1,-1,-1,76,78,80,82,-1,84,86,88,90,-1,-1,-1,-1,-1,-1,92,-1,94,96,98,100,102,-1,104,-1,-1,106,108,-1,110,-1,-1,-1,-1,112,114,116,-1,118,-1,-1,-1,120,-1,-1,122,124,126,-1,128,130,-1,-1,-1,-1,-1,-1,-1,-1,-1,-1,-1,-1,-1,-1,-1,-1,-1,132,134,-1,-1,-1,-1],"split_conditions":[6.906746E1,-2.336368E3,9.523684E3,-2.3005977E3,1.3501056E2,2.4831412E10,-1.2913318E-1,2.4423685E0,3.664878E10,5.2546837E1,7.271084E1,2.2395193E10,1.0735714E0,2.3850002E0,-5.597751E2,3.0295067E10,3.703672E3,9.661874E2,3.907355E10,4.8855667E1,8.466609E1,1.9906085E10,7.505775E1,-3.4662817E-2,8.28491E1,-6.2821634E-2,2.43325E0,-1.9947372E-1,-6.4833313E-3,2.4165E0,4.3724655E1,2.6593181E-1,1.1577268E-2,4.8719296E1,-1.6563369E3,2.5307398E10,-1.703127E3,2.263125E2,3.9442945E4,-2.1784575E-1,6.863681E-2,2.0738421E-2,1.536316E-1,-2.8352344E-2,-1.7328988E-1,2.2615E0,1.6034167E-2,2.1213017E-1,5.6136895E-2,4.650374E-2,1.890896E-1,8.864278E-2,-1.6207731E-1,2.5331178E0,4.1481454E10,-3.5534062E3,2.442662E3,-6.4632796E-2,-2.621884E-1,-1.6011517E-1,8.43743E-2,5.0800742E2,2.5455732E3,8.074182E2,2.0514678E3,1.32904E-2,6.0875618E1,-1.9658975E3,3.9193512E1,1.5072994E10,4.7721076E-3,1.1488145E-1,-1.2193348E-1,2.1386698E-1,4.537505E-2,1.7062747E-1,-1.1919922E1,-2.3404913E-1,2.3274999E0,5.9195386E2,2.832202E4,7.82326E1,2.275E0,2.5100946E-2,1.708655E0,-3.2622866E-2,2.3102622E-1,4.0104565E3,1.9073047E10,3.0398652E-2,-3.3562417E3,-1.07232E-1,6.638357E-2,8.766862E-2,-1.2252829E-1,6.902565E1,6.0272842E1,2.381579E0,3.9316225E-3,-2.49973E3,-1.2175367E-1,2.2764698E-2,-2.1424733E-1,3.5291935E10,2.6698187E-1,2.4008238E-1,2.9039223E10,2.2121668E0,5.1785736E1,-3.2799415E-2,8.2585E1,4.7527946E1,-1.1740704E-1,2.4939035E-3,-1.882806E-1,2.3678112E-1,6.850489E-2,3.9711628E-2,2.1408994E-1,-5.9341457E-2,1.7238165E-1,7.05634E-2,-1.6901937E-1,1.6271293E-1,-5.9033282E-2,-2.3815487E-1,-3.2182947E-2,-7.137078E-2,-2.5048158E-1,3.771685E3,2.3460487E10,-1.260263E-1,9.11909E-2,-2.4967259E-2,2.311844E-1],"split_indices":[173,204,204,99,234,289,0,205,94,218,128,229,160,205,249,79,129,9,169,218,98,214,158,0,293,0,280,0,0,130,98,0,0,293,219,214,279,24,241,0,0,0,0,0,0,14,0,0,0,0,0,0,0,89,79,249,24,0,0,0,0,234,24,204,189,0,188,279,113,139,0,0,0,0,0,0,279,0,100,204,33,293,160,0,25,0,0,296,289,0,9,0,0,0,0,218,143,175,0,54,0,0,0,49,0,0,184,100,188,0,13,188,0,0,0,0,0,0,0,0,0,0,0,0,0,0,0,0,0,116,79,0,0,0,0],"split_type":[0,0,0,0,0,0,0,0,0,0,0,0,0,0,0,0,0,0,0,0,0,0,0,0,0,0,0,0,0,0,0,